#ifndef MNIST_WEIGHTS_H
#define MNIST_WEIGHTS_H

// Neural Network Weights for MNIST Classifier
// Architecture: 100-32-16-10 (no biases)

// Layer Dimensions
#define INPUT_DIM 100
#define L1_DIM 32
#define L2_DIM 16
#define OUTPUT_DIM 10

// Combined weights array (flattened)
const float nn_weights[] = {
    // Layer 1 (100x32)
    0.26623213f,
    0.41072389f,
    -0.12527364f,
    0.23764831f,
    -0.47920579f,
    0.24377114f,
    -0.55405551f,
    0.39166427f,
    -0.00080773f,
    0.02595084f,
    -0.22598799f,
    0.23088077f,
    0.06299862f,
    -0.08820704f,
    -0.21234716f,
    0.09568539f,
    0.25700033f,
    0.22938380f,
    0.18958104f,
    -0.01602074f,
    -0.00748455f,
    0.12946180f,
    0.02386065f,
    0.35067290f,
    -0.28798160f,
    0.23463075f,
    0.40106669f,
    -0.53768682f,
    0.18934746f,
    0.12065389f,
    0.15272851f,
    -0.52741307f,
    0.19033170f,
    0.43481955f,
    0.01590633f,
    0.10837615f,
    -0.57334632f,
    0.13762589f,
    -0.55235004f,
    0.22602168f,
    0.02648256f,
    0.04047309f,
    -0.12289207f,
    0.19853672f,
    0.11101855f,
    0.06661202f,
    -0.20990141f,
    0.04642848f,
    0.20231384f,
    -0.03884789f,
    0.09370589f,
    -0.03096792f,
    -0.03860970f,
    0.18551938f,
    -0.03148809f,
    0.33882374f,
    -0.24743856f,
    0.36151102f,
    0.44192436f,
    -0.48458362f,
    0.20465577f,
    0.21626353f,
    0.09490009f,
    -0.61672884f,
    0.02217457f,
    -0.03625523f,
    0.06083097f,
    0.23821023f,
    -0.57743227f,
    0.08363876f,
    -0.13126846f,
    0.23341697f,
    0.50107855f,
    0.00581243f,
    0.15577522f,
    -0.01548125f,
    -0.30402189f,
    0.27644399f,
    -0.00361316f,
    0.02858289f,
    -0.14056592f,
    -0.13183762f,
    0.56633466f,
    -0.10520495f,
    0.12160724f,
    0.22831970f,
    -0.21361071f,
    -0.00812383f,
    0.34069639f,
    -0.29488426f,
    0.30910990f,
    0.13968067f,
    0.04559832f,
    0.07766097f,
    0.50877863f,
    -0.39490575f,
    0.14929189f,
    -0.20713922f,
    0.56381309f,
    0.04916202f,
    -0.35925740f,
    -0.09556610f,
    0.47709528f,
    0.09888054f,
    0.54758710f,
    -0.10991542f,
    0.26639426f,
    0.06366629f,
    -0.62368429f,
    0.65517926f,
    0.35361364f,
    -0.57876551f,
    -0.51381117f,
    -0.64057148f,
    0.63182312f,
    -0.11296149f,
    0.47879156f,
    0.18180011f,
    -0.17609036f,
    -0.54121143f,
    0.59399921f,
    -0.51564199f,
    0.31491321f,
    0.36654490f,
    -0.25421312f,
    -0.24860500f,
    0.45445040f,
    0.25589442f,
    -0.12699644f,
    -0.37050334f,
    0.41826215f,
    0.24555212f,
    -0.32391915f,
    0.14338331f,
    0.27660647f,
    -0.14589424f,
    0.52694118f,
    0.03806616f,
    0.38349921f,
    -0.14167869f,
    -0.53971726f,
    0.47266492f,
    0.27936372f,
    -0.61361498f,
    -0.54633647f,
    -0.54057968f,
    0.55396229f,
    -0.07604356f,
    0.17794949f,
    0.31224060f,
    -0.42834771f,
    -0.38790664f,
    0.61300671f,
    -0.34444749f,
    0.20224476f,
    0.36886299f,
    -0.35017362f,
    -0.10529665f,
    0.51951158f,
    0.02953306f,
    0.14091593f,
    -0.04041104f,
    0.33708248f,
    0.43263939f,
    -0.07112394f,
    0.24281943f,
    0.51500380f,
    0.14965661f,
    0.42647523f,
    -0.06176196f,
    0.33535019f,
    -0.10468350f,
    -0.46475935f,
    0.40762490f,
    0.05420667f,
    -0.50068492f,
    -0.37667593f,
    -0.35705692f,
    0.41041511f,
    -0.05399126f,
    -0.08982369f,
    0.37350470f,
    -0.30617023f,
    -0.32511514f,
    0.37216687f,
    -0.48271775f,
    0.30204219f,
    0.30816388f,
    -0.12073573f,
    -0.01571560f,
    0.31058714f,
    0.22519626f,
    0.32243025f,
    0.05294677f,
    0.35765085f,
    0.09601480f,
    -0.02312753f,
    -0.19159399f,
    0.46409681f,
    0.23800592f,
    0.33885920f,
    0.07120863f,
    0.26653153f,
    0.07033250f,
    -0.38432425f,
    0.42758086f,
    0.33703223f,
    -0.50331962f,
    -0.41438293f,
    -0.46472991f,
    0.33842635f,
    -0.03404338f,
    -0.04701463f,
    0.26510894f,
    -0.12278154f,
    -0.37363410f,
    0.33066082f,
    -0.25785622f,
    0.40468812f,
    0.04618914f,
    -0.47176301f,
    -0.11057860f,
    0.26781073f,
    0.28406850f,
    0.36951882f,
    0.07765031f,
    0.61981034f,
    -0.17440775f,
    -0.03329979f,
    -0.45046675f,
    0.62771124f,
    0.26734832f,
    0.17234999f,
    -0.03909799f,
    0.25999877f,
    0.40071374f,
    -0.18521015f,
    0.51019359f,
    0.42453128f,
    -0.18151873f,
    -0.30752102f,
    -0.58935738f,
    0.30722722f,
    0.03685153f,
    0.05519738f,
    0.29024747f,
    0.26244268f,
    -0.48556745f,
    0.38226295f,
    -0.08299933f,
    0.32262293f,
    0.14550082f,
    -0.63460922f,
    -0.40334067f,
    0.54775178f,
    0.34662798f,
    0.40274009f,
    0.27895558f,
    0.54204232f,
    -0.28283110f,
    0.30342168f,
    -0.40932062f,
    0.59090924f,
    0.30309820f,
    -0.15161908f,
    0.07273047f,
    0.13277085f,
    0.22513124f,
    0.30068317f,
    0.41792089f,
    0.37611431f,
    -0.06734250f,
    0.04031197f,
    -0.67264718f,
    0.04722029f,
    -0.10046834f,
    0.18769951f,
    0.09835305f,
    0.42366999f,
    -0.30708733f,
    -0.10008828f,
    0.25271651f,
    0.32719323f,
    0.00597596f,
    -0.62557447f,
    -0.33757764f,
    0.54433858f,
    0.40755206f,
    0.43497321f,
    -0.48411503f,
    0.58126444f,
    -0.27994755f,
    0.53563708f,
    -0.42303365f,
    0.50563115f,
    -0.37723726f,
    -0.28987914f,
    0.00437045f,
    0.09821770f,
    0.50809073f,
    0.53012162f,
    -0.31930539f,
    0.48294133f,
    -0.16982253f,
    -0.01821831f,
    -0.57064593f,
    -0.62045658f,
    0.06689520f,
    -0.46496233f,
    0.40975571f,
    0.49152520f,
    0.20524012f,
    -0.40861553f,
    0.32886758f,
    0.25174126f,
    0.38059539f,
    -0.46505255f,
    -0.42943418f,
    -0.14679532f,
    -0.40919408f,
    0.31200489f,
    0.47483903f,
    -0.14212337f,
    0.16832215f,
    -0.62121212f,
    0.20838007f,
    -0.40449673f,
    0.47846904f,
    -0.09501611f,
    0.06710552f,
    -0.18194035f,
    0.28886443f,
    -0.03634823f,
    -0.22781032f,
    -0.27896920f,
    0.09368019f,
    0.19103712f,
    0.19865011f,
    0.07282557f,
    -0.06422458f,
    -0.04477800f,
    0.04954725f,
    -0.01610678f,
    0.37208360f,
    -0.23701002f,
    0.16249518f,
    0.36695901f,
    -0.50360250f,
    0.15834586f,
    0.33887696f,
    0.11353001f,
    -0.68494600f,
    0.53171885f,
    0.39374650f,
    -0.28592199f,
    0.31894153f,
    -0.60174304f,
    -0.25835240f,
    -0.53969532f,
    0.57712865f,
    0.08129790f,
    -0.06810739f,
    0.10118175f,
    0.22109553f,
    -0.28387818f,
    -0.34617901f,
    -0.22339898f,
    0.20840804f,
    0.23323041f,
    0.07500524f,
    -0.20464610f,
    -0.05212078f,
    -0.42112494f,
    0.21267287f,
    0.18756501f,
    0.08655772f,
    -0.20078647f,
    -0.17496571f,
    0.38432911f,
    -0.56654406f,
    0.24350753f,
    0.36992550f,
    0.04735834f,
    -0.47394899f,
    0.29120225f,
    -0.16009963f,
    -0.10156635f,
    0.25556952f,
    -0.46296087f,
    -0.15692621f,
    -0.42792177f,
    0.34160519f,
    0.22525433f,
    -0.00965680f,
    0.18369462f,
    0.22368467f,
    -0.05040085f,
    0.04156869f,
    -0.15635145f,
    0.11464423f,
    0.09224836f,
    -0.21918260f,
    0.16081019f,
    0.08686794f,
    -0.33634749f,
    0.21494590f,
    0.03545706f,
    0.16587201f,
    0.22803588f,
    -0.39720485f,
    0.27007759f,
    -0.14558059f,
    0.13107431f,
    0.20298906f,
    0.09112375f,
    -0.48769778f,
    0.23398608f,
    -0.51571000f,
    -0.03367288f,
    0.23022370f,
    -0.30219540f,
    -0.06520028f,
    -0.31732115f,
    -0.21402808f,
    0.43674466f,
    -0.00791622f,
    0.07934187f,
    0.20919271f,
    0.01256048f,
    0.08003578f,
    -0.23082975f,
    0.22294568f,
    -0.10979988f,
    -0.12116493f,
    0.43020073f,
    0.03367555f,
    0.05769868f,
    -0.02998463f,
    0.01934274f,
    0.31022534f,
    0.33980811f,
    -0.20140071f,
    0.14531708f,
    0.12531552f,
    0.21640325f,
    0.37311816f,
    0.28179714f,
    -0.51326483f,
    -0.02909057f,
    -0.47302419f,
    -0.19855297f,
    0.23518190f,
    0.00828446f,
    0.14260501f,
    -0.16927594f,
    -0.37695831f,
    0.23024087f,
    0.01562577f,
    0.03468719f,
    0.29624671f,
    -0.02387659f,
    -0.01722792f,
    -0.26306027f,
    0.01611465f,
    -0.20465319f,
    0.33683294f,
    0.22233503f,
    -0.11348747f,
    -0.09094281f,
    0.25656304f,
    -0.06189044f,
    0.25232711f,
    0.17804052f,
    -0.20726196f,
    0.23928694f,
    0.31811142f,
    0.24032176f,
    0.41412964f,
    0.03462636f,
    -0.30211106f,
    -0.06865625f,
    -0.32981077f,
    0.00264482f,
    0.27770415f,
    0.33623084f,
    0.29144871f,
    0.02063172f,
    -0.31328270f,
    0.27335614f,
    -0.02272140f,
    0.23888193f,
    0.23464052f,
    0.10292649f,
    -0.11685856f,
    0.00423869f,
    -0.06145445f,
    -0.08336353f,
    0.32454330f,
    -0.07198995f,
    -0.05406843f,
    0.25390023f,
    0.31195498f,
    0.04752290f,
    0.21260118f,
    0.20066027f,
    -0.02357592f,
    0.37714472f,
    0.40307167f,
    0.27495041f,
    0.31396058f,
    0.03320248f,
    -0.30200943f,
    0.16603830f,
    -0.28238371f,
    0.25281736f,
    0.20646790f,
    0.20870823f,
    0.05139070f,
    0.35034388f,
    -0.46895316f,
    0.22081807f,
    -0.11042730f,
    0.22312988f,
    0.42278835f,
    0.23902126f,
    0.06999045f,
    0.26667193f,
    -0.29005560f,
    -0.10739014f,
    -0.11861265f,
    0.11036794f,
    -0.01089990f,
    0.03479417f,
    0.13793053f,
    0.08432556f,
    0.34773403f,
    0.23909463f,
    0.20376936f,
    0.28484154f,
    0.21144608f,
    -0.06993208f,
    0.15045536f,
    0.09792463f,
    -0.30434358f,
    0.27145994f,
    0.11964206f,
    0.44921762f,
    0.06871849f,
    0.26376855f,
    -0.11005956f,
    0.23488019f,
    -0.13311759f,
    0.08214543f,
    -0.07392210f,
    0.28061673f,
    0.20739625f,
    0.00969344f,
    0.05530084f,
    0.27733037f,
    -0.41458201f,
    -0.30199128f,
    -0.21036373f,
    0.25718838f,
    0.03380483f,
    -0.15940952f,
    0.25070423f,
    -0.11054236f,
    -0.00804809f,
    0.10269772f,
    0.32268652f,
    0.36377463f,
    0.16070572f,
    -0.22638129f,
    -0.12988944f,
    0.40481219f,
    -0.25639805f,
    0.23288015f,
    0.12916477f,
    0.62679106f,
    -0.37911376f,
    0.18299919f,
    -0.39104560f,
    0.47152641f,
    0.13387184f,
    -0.12822342f,
    0.07353520f,
    0.32875550f,
    0.12316038f,
    0.00019911f,
    0.17907673f,
    0.38474351f,
    -0.24870586f,
    -0.05892641f,
    -0.49313736f,
    0.12077187f,
    0.07654714f,
    -0.26692790f,
    0.34864086f,
    0.05522357f,
    -0.11766607f,
    -0.07897601f,
    0.30418757f,
    0.13610809f,
    0.12905391f,
    -0.42505899f,
    -0.40851673f,
    0.15461311f,
    -0.35627797f,
    0.24728572f,
    -0.50408632f,
    0.61109608f,
    -0.38235739f,
    0.45508483f,
    -0.46711493f,
    0.38862455f,
    -0.30361757f,
    -0.29704666f,
    0.07258463f,
    -0.03608754f,
    0.27556652f,
    0.32115945f,
    -0.24150184f,
    0.42540935f,
    0.16698815f,
    0.11359439f,
    -0.30778474f,
    -0.29882535f,
    0.02433828f,
    -0.27416223f,
    0.23290387f,
    0.34334248f,
    0.18775797f,
    -0.24352570f,
    0.31510618f,
    0.16636705f,
    0.35874838f,
    -0.43182620f,
    -0.52548981f,
    -0.11398588f,
    -0.22538760f,
    0.14220880f,
    0.47810134f,
    -0.28617042f,
    0.39268237f,
    -0.60494834f,
    0.41102543f,
    -0.31985235f,
    0.42188340f,
    -0.07892404f,
    0.01631753f,
    -0.14153178f,
    0.20471680f,
    0.17826024f,
    -0.18463853f,
    -0.14692308f,
    0.24134722f,
    0.13864338f,
    0.43874204f,
    0.22210118f,
    -0.11124365f,
    -0.07998546f,
    0.10098836f,
    -0.26208186f,
    0.34673923f,
    -0.26801378f,
    0.49738592f,
    0.26621705f,
    -0.57448637f,
    0.33760685f,
    0.28439787f,
    0.10536325f,
    -0.53986537f,
    0.24814026f,
    0.44250607f,
    -0.23405844f,
    0.34683019f,
    -0.52661508f,
    0.15547587f,
    -0.47176892f,
    0.29573384f,
    0.16888519f,
    0.09300847f,
    0.05632760f,
    0.30869552f,
    -0.38106316f,
    -0.18935619f,
    -0.25247988f,
    0.23866734f,
    0.25156698f,
    0.38670209f,
    -0.04154200f,
    -0.10877973f,
    -0.10193878f,
    0.39576852f,
    -0.02201925f,
    0.19646813f,
    -0.30526444f,
    -0.00993804f,
    0.42296165f,
    -0.52805746f,
    0.27849859f,
    0.23567764f,
    -0.01751747f,
    -0.49764588f,
    0.11171719f,
    0.40556562f,
    0.06311840f,
    0.10187725f,
    -0.32703665f,
    0.12330621f,
    -0.51865250f,
    0.30713463f,
    0.13596390f,
    0.05666197f,
    -0.22420378f,
    0.12296129f,
    0.11475208f,
    -0.03875697f,
    0.04667718f,
    0.16908336f,
    0.11848687f,
    0.05341218f,
    0.00788019f,
    -0.11052237f,
    0.06534354f,
    0.16874735f,
    0.06775235f,
    0.11701534f,
    -0.15812950f,
    0.30323732f,
    0.34985888f,
    -0.21677946f,
    0.08465676f,
    0.05511734f,
    0.18966711f,
    -0.38001773f,
    0.16763283f,
    0.34615856f,
    0.15270106f,
    0.18620440f,
    0.14673285f,
    0.30549970f,
    -0.25799921f,
    0.19486508f,
    -0.01601377f,
    -0.03721521f,
    -0.28113085f,
    0.34841341f,
    0.35557976f,
    0.09356861f,
    0.13312247f,
    0.13416456f,
    0.24021557f,
    0.12647250f,
    -0.23640157f,
    0.02331312f,
    0.26970476f,
    0.00487192f,
    0.26139018f,
    0.18375696f,
    0.07656685f,
    0.26157701f,
    0.25865597f,
    0.23151837f,
    0.20394319f,
    0.21766767f,
    0.10877077f,
    -0.37032244f,
    0.09955047f,
    0.22248611f,
    -0.03037863f,
    0.22496869f,
    0.26743490f,
    0.45707798f,
    0.25786906f,
    -0.14297254f,
    0.12401872f,
    0.02418877f,
    -0.00741554f,
    0.18777025f,
    0.53545457f,
    0.06703164f,
    0.18715195f,
    0.40910724f,
    0.33530790f,
    0.39521655f,
    -0.12604792f,
    0.01302972f,
    0.26789808f,
    -0.07132455f,
    0.14968981f,
    0.25597897f,
    0.18857412f,
    -0.05517267f,
    0.07002234f,
    0.26049885f,
    0.28519893f,
    0.36401474f,
    -0.16197143f,
    0.39119676f,
    -0.23676927f,
    0.07885614f,
    -0.24056137f,
    0.03763625f,
    0.17164619f,
    0.14023261f,
    0.47725576f,
    -0.05155080f,
    0.43010595f,
    -0.08699246f,
    -0.00171890f,
    0.16412835f,
    0.38747153f,
    0.39553258f,
    0.35082012f,
    0.50389159f,
    0.41198310f,
    0.47125238f,
    -0.11749104f,
    -0.03301546f,
    0.39898407f,
    -0.36486763f,
    0.22086254f,
    0.15026821f,
    0.58477306f,
    -0.36335710f,
    0.10761975f,
    0.32849181f,
    0.29976636f,
    0.44001901f,
    -0.37571388f,
    0.50603616f,
    0.03364240f,
    0.15692660f,
    0.06326467f,
    0.13634846f,
    0.19924459f,
    0.27681175f,
    0.11641678f,
    -0.18277557f,
    0.25613701f,
    0.00432750f,
    -0.11547617f,
    0.16513927f,
    0.28658688f,
    0.24555057f,
    0.30721956f,
    0.15224865f,
    0.40857264f,
    0.21338461f,
    -0.28431264f,
    -0.00125569f,
    0.31795675f,
    -0.18544915f,
    0.18056422f,
    0.28452879f,
    -0.02679195f,
    0.23058996f,
    0.19692001f,
    0.27981058f,
    0.11473394f,
    0.17499307f,
    -0.23831981f,
    0.36672106f,
    0.12667996f,
    -0.02718394f,
    0.29273701f,
    0.10309733f,
    0.21640694f,
    0.25472447f,
    -0.01276069f,
    -0.14799929f,
    -0.28219745f,
    0.05780790f,
    0.02706699f,
    0.23987529f,
    0.05861571f,
    0.00179640f,
    0.21247120f,
    -0.20582291f,
    0.04714380f,
    0.13559754f,
    -0.18457401f,
    0.05642130f,
    0.14789656f,
    0.18737699f,
    0.19731520f,
    0.16493802f,
    -0.35798982f,
    0.23324315f,
    0.21963030f,
    0.14139546f,
    0.15102758f,
    0.05398367f,
    -0.21523523f,
    -0.17025429f,
    0.16359846f,
    -0.27306271f,
    0.59714574f,
    -0.26162234f,
    0.29915664f,
    -0.26405278f,
    0.38676807f,
    -0.28636751f,
    -0.31593063f,
    0.06552150f,
    -0.13334830f,
    0.26341704f,
    0.28666332f,
    -0.11444081f,
    0.45859039f,
    -0.39426941f,
    -0.07652245f,
    -0.43078026f,
    -0.28775004f,
    -0.11669362f,
    -0.11104561f,
    0.38141283f,
    0.13732673f,
    0.08943474f,
    -0.26624000f,
    0.30968150f,
    0.33472708f,
    0.17391814f,
    -0.21999320f,
    -0.35471025f,
    -0.10755051f,
    -0.10464743f,
    0.46097514f,
    -0.47594595f,
    0.60994464f,
    -0.48551759f,
    0.54468870f,
    -0.46474963f,
    0.48126656f,
    -0.53695005f,
    -0.36187780f,
    -0.03148852f,
    0.02731728f,
    0.31684059f,
    0.50020409f,
    -0.38021603f,
    0.44687143f,
    0.08336644f,
    -0.04929538f,
    -0.50079751f,
    -0.62775230f,
    -0.07547139f,
    -0.49524137f,
    0.43779901f,
    0.44585377f,
    0.13991272f,
    -0.30782777f,
    0.31786829f,
    0.27364752f,
    0.41814768f,
    -0.44170496f,
    -0.57204199f,
    -0.31100655f,
    -0.31696087f,
    0.01657562f,
    0.52271098f,
    -0.68118715f,
    0.53554749f,
    -0.68251634f,
    0.70659196f,
    -0.40673414f,
    0.38346606f,
    -0.23023847f,
    0.05482461f,
    0.38217723f,
    0.13417077f,
    0.02191041f,
    -0.44299763f,
    -0.22670434f,
    0.20846261f,
    0.24872379f,
    0.75668818f,
    0.78373045f,
    -0.10631527f,
    -0.10757250f,
    0.26152056f,
    -0.55870605f,
    0.61594588f,
    -0.04408884f,
    0.47984165f,
    0.10814737f,
    -0.47481978f,
    0.62767935f,
    0.67844009f,
    -0.23945577f,
    -0.42537084f,
    0.13470180f,
    0.31280193f,
    -0.35443762f,
    0.22163832f,
    -0.16439518f,
    0.24074478f,
    -0.34047651f,
    0.34420741f,
    0.03439532f,
    0.03210644f,
    0.20192830f,
    0.13194618f,
    -0.11942155f,
    -0.41073954f,
    -0.17762315f,
    0.25519171f,
    0.15004249f,
    0.47998080f,
    0.20880838f,
    0.04164205f,
    0.05627051f,
    0.34564361f,
    -0.30991918f,
    0.25378978f,
    -0.23658276f,
    0.30890623f,
    0.24035150f,
    -0.28700730f,
    0.44799796f,
    0.35735953f,
    -0.13002077f,
    -0.34770176f,
    0.06376348f,
    0.18353076f,
    -0.22667640f,
    -0.31214604f,
    0.26209641f,
    0.05855612f,
    -0.35132965f,
    0.08880150f,
    0.03844465f,
    0.04973014f,
    0.23002088f,
    0.05960105f,
    0.11678767f,
    -0.22637758f,
    0.12960178f,
    0.24325119f,
    0.08965228f,
    0.41375723f,
    -0.20458914f,
    -0.03918067f,
    0.31575722f,
    0.35274830f,
    0.07582185f,
    -0.30230984f,
    0.01738730f,
    0.19735411f,
    0.19594043f,
    0.16451941f,
    0.28165704f,
    -0.25744501f,
    0.11147568f,
    -0.02161377f,
    -0.04012324f,
    0.28170156f,
    0.21483202f,
    -0.26762646f,
    0.52084917f,
    -0.01605870f,
    0.03288769f,
    0.18064919f,
    -0.07198375f,
    0.02197137f,
    -0.02333246f,
    0.09844352f,
    0.44372627f,
    0.00344966f,
    0.25488669f,
    0.13241154f,
    0.19345589f,
    0.28915039f,
    -0.24734078f,
    -0.00586762f,
    0.28612030f,
    0.10846958f,
    0.13863614f,
    -0.32995573f,
    0.11739064f,
    0.32643399f,
    0.17261066f,
    0.32526329f,
    -0.06401405f,
    -0.40004492f,
    -0.01875605f,
    0.30079761f,
    -0.00508513f,
    0.21679103f,
    0.10284272f,
    -0.37914187f,
    0.56291240f,
    -0.24337524f,
    0.26290262f,
    0.34364396f,
    -0.20760177f,
    -0.10014358f,
    0.14310533f,
    0.19899824f,
    0.42871773f,
    0.08352888f,
    0.28943107f,
    0.33426106f,
    0.34620887f,
    0.28418618f,
    0.19883521f,
    -0.04280606f,
    0.29486260f,
    0.01346014f,
    0.10561477f,
    -0.08152169f,
    0.06795808f,
    0.33834547f,
    -0.26719889f,
    0.36121443f,
    0.04582634f,
    -0.44029379f,
    -0.21540031f,
    0.29048738f,
    -0.06763328f,
    0.27947217f,
    -0.57918459f,
    0.21595390f,
    0.17711464f,
    -0.00740488f,
    0.12815140f,
    0.25575766f,
    -0.11293301f,
    -0.03752094f,
    0.39036429f,
    0.19918077f,
    0.18210949f,
    -0.15696712f,
    0.08821624f,
    0.41016671f,
    0.36853519f,
    0.37734321f,
    0.21797363f,
    -0.04952400f,
    -0.23979582f,
    0.18135454f,
    -0.22665203f,
    0.31915060f,
    0.01315254f,
    0.23048934f,
    -0.07017564f,
    -0.15932769f,
    0.39388004f,
    0.34547290f,
    -0.58629245f,
    0.32359096f,
    0.12985294f,
    0.24955067f,
    -0.32955685f,
    -0.07943870f,
    -0.20055032f,
    0.40693215f,
    -0.61784101f,
    0.09104720f,
    -0.24232906f,
    -0.10385779f,
    -0.27399209f,
    0.32765794f,
    0.14123592f,
    0.15146954f,
    0.22900291f,
    0.18812619f,
    0.30045927f,
    0.20062715f,
    -0.22637251f,
    -0.10092527f,
    0.34450921f,
    -0.11130247f,
    0.15898579f,
    0.48783800f,
    -0.27157173f,
    0.18840244f,
    0.39729849f,
    -0.36812663f,
    0.12743267f,
    0.32483289f,
    -0.05267266f,
    0.02222271f,
    0.04322191f,
    0.04863005f,
    -0.16780786f,
    -0.21321346f,
    0.23534918f,
    0.30856317f,
    -0.63517588f,
    0.06889558f,
    0.11382844f,
    0.00287737f,
    -0.21944466f,
    0.12149753f,
    0.27712727f,
    -0.01782151f,
    0.24057606f,
    0.12316502f,
    0.18856235f,
    0.43905509f,
    -0.25415665f,
    -0.11086233f,
    0.24136038f,
    -0.02985117f,
    0.31138930f,
    0.31056684f,
    -0.18583541f,
    0.01468631f,
    0.33674377f,
    0.20284523f,
    0.15516205f,
    0.20694822f,
    -0.18699902f,
    0.10734608f,
    -0.30338123f,
    -0.49345359f,
    0.07347960f,
    -0.38977104f,
    0.58674568f,
    -0.48223263f,
    -0.61498958f,
    -0.53195316f,
    -0.49982280f,
    0.05224910f,
    -0.15833484f,
    0.37991932f,
    0.50778043f,
    -0.21647325f,
    0.16186260f,
    -0.28690878f,
    0.32746395f,
    0.03940572f,
    -0.63040781f,
    -0.07719135f,
    -0.02133090f,
    0.18179592f,
    0.20766941f,
    0.46674433f,
    -0.30725032f,
    0.41209030f,
    0.18297669f,
    0.38974842f,
    -0.02423372f,
    -0.35381106f,
    -0.44510838f,
    -0.16644822f,
    0.66527098f,
    -0.53259027f,
    0.27913100f,
    -0.49375889f,
    0.78033870f,
    -0.62335265f,
    0.47764367f,
    -0.67487383f,
    -0.69847083f,
    0.07324082f,
    0.38837859f,
    0.66249174f,
    0.73081613f,
    -0.63755226f,
    0.14135222f,
    0.32185170f,
    0.38792515f,
    -0.60160184f,
    -0.87503266f,
    -0.04267204f,
    -0.80287415f,
    0.63162327f,
    0.68789560f,
    0.43523908f,
    -0.45311120f,
    0.56540620f,
    -0.22309004f,
    0.61079860f,
    -0.23741595f,
    -0.45594877f,
    -0.72088301f,
    -0.53297347f,
    -0.09903558f,
    0.71972287f,
    -0.64744860f,
    0.56470019f,
    -0.65481681f,
    0.60607392f,
    -0.43671930f,
    0.37407857f,
    -0.31647137f,
    -0.08304095f,
    0.25944099f,
    0.18050160f,
    0.15472388f,
    -0.26680827f,
    -0.27853322f,
    0.39612696f,
    0.34960485f,
    0.67890972f,
    0.69957608f,
    -0.05341080f,
    -0.21241635f,
    0.14812760f,
    -0.53115857f,
    0.60369903f,
    -0.08469272f,
    0.47183773f,
    0.02826435f,
    -0.57041723f,
    0.75331354f,
    0.56040806f,
    -0.29286104f,
    -0.50568724f,
    0.14895999f,
    0.16124271f,
    -0.52025801f,
    -0.58016378f,
    0.22215980f,
    -0.64824778f,
    -0.19022864f,
    0.41292527f,
    -0.35012344f,
    -0.02151606f,
    -0.08428990f,
    -0.10851254f,
    0.10226499f,
    -0.28998393f,
    0.04764153f,
    0.42712042f,
    0.29905945f,
    -0.09185927f,
    -0.39891040f,
    0.00428828f,
    -0.01788546f,
    0.18877783f,
    0.22514367f,
    -0.23133263f,
    -0.32158914f,
    0.10279280f,
    -0.07338019f,
    -0.24751963f,
    -0.20917870f,
    -0.26585481f,
    -0.15973647f,
    0.27067444f,
    0.23505762f,
    0.04943537f,
    0.23229471f,
    -0.58277661f,
    0.38976780f,
    -0.53329796f,
    0.05474171f,
    0.26082730f,
    -0.09798407f,
    0.05629232f,
    -0.01217692f,
    0.07477906f,
    0.31946531f,
    0.01332213f,
    0.29119745f,
    0.37437326f,
    0.15005532f,
    -0.35819688f,
    -0.49704912f,
    0.02150617f,
    0.20812573f,
    0.01358701f,
    0.34094873f,
    -0.21885855f,
    -0.07189412f,
    0.00047957f,
    -0.02769770f,
    0.11357216f,
    -0.50067794f,
    -0.49812424f,
    0.05825387f,
    0.36463785f,
    0.41113931f,
    -0.08769681f,
    0.43799782f,
    -0.42382592f,
    -0.18999051f,
    -0.43662351f,
    0.40472016f,
    0.17241979f,
    -0.20143265f,
    -0.00923036f,
    -0.21244614f,
    0.27258313f,
    0.26753721f,
    0.26584435f,
    0.33973372f,
    0.11635678f,
    0.19091366f,
    -0.43137002f,
    -0.08397709f,
    0.03776298f,
    0.14545010f,
    -0.18340501f,
    0.23264366f,
    -0.04938358f,
    -0.09657980f,
    0.18589021f,
    0.22596864f,
    0.08338152f,
    -0.39076790f,
    -0.44209391f,
    0.27961853f,
    0.27369958f,
    0.39360669f,
    -0.52624387f,
    0.18283848f,
    -0.25561014f,
    0.34220597f,
    -0.66235799f,
    0.14056817f,
    -0.18648008f,
    0.18897937f,
    -0.11823813f,
    0.01326415f,
    0.30769074f,
    0.19343457f,
    -0.15166788f,
    0.22233294f,
    0.10274978f,
    -0.02510924f,
    -0.55531526f,
    -0.12072093f,
    -0.10560349f,
    -0.25162667f,
    0.27441546f,
    0.44509894f,
    0.32786810f,
    0.03354592f,
    0.05090989f,
    0.41971579f,
    0.21736476f,
    -0.46683094f,
    -0.50720167f,
    -0.16840002f,
    -0.14856245f,
    0.44298008f,
    0.25256962f,
    -0.37158367f,
    0.22785686f,
    0.28791901f,
    -0.21685848f,
    0.14262122f,
    0.35994181f,
    0.25985402f,
    0.03170123f,
    0.43967453f,
    0.14714307f,
    -0.34170997f,
    -0.36680359f,
    -0.20869051f,
    0.38169944f,
    -0.29633036f,
    0.04881450f,
    -0.38259259f,
    -0.11243475f,
    -0.41547307f,
    0.34330738f,
    0.36207539f,
    -0.52791482f,
    -0.24020137f,
    -0.59396577f,
    0.36893722f,
    0.32097596f,
    0.15925591f,
    0.12507381f,
    -0.34424534f,
    0.53228229f,
    0.21072860f,
    0.21520410f,
    0.03228558f,
    -0.22771987f,
    -0.45604253f,
    -0.17350008f,
    -0.09964813f,
    0.38983336f,
    0.20336437f,
    0.00831498f,
    -0.27742434f,
    0.12849985f,
    -0.11523274f,
    0.14274199f,
    0.21314529f,
    0.32913527f,
    0.40470403f,
    0.06447817f,
    -0.26141092f,
    -0.03755473f,
    0.37630084f,
    -0.14783797f,
    0.27727842f,
    -0.26907867f,
    0.00880788f,
    -0.39771408f,
    0.23804203f,
    -0.36778209f,
    -0.14568417f,
    0.13896859f,
    0.22838412f,
    0.19157332f,
    -0.43741000f,
    0.33115405f,
    -0.06334151f,
    -0.46391180f,
    -0.44806823f,
    0.21220255f,
    -0.51654142f,
    0.37993023f,
    0.33412847f,
    -0.10131491f,
    -0.17453365f,
    -0.05445616f,
    -0.35384360f,
    0.28682154f,
    0.15870762f,
    0.12615794f,
    0.36680198f,
    0.27287880f,
    0.07673088f,
    0.07060191f,
    0.39379364f,
    -0.08479712f,
    0.23699740f,
    -0.16412127f,
    0.21229687f,
    -0.41748124f,
    0.04848163f,
    -0.00193337f,
    -0.20680872f,
    -0.22984011f,
    0.11678769f,
    0.53504950f,
    -0.55739480f,
    -0.37976989f,
    0.10875343f,
    -0.56721270f,
    -0.27955437f,
    -0.05792627f,
    -0.59170675f,
    -0.11926635f,
    0.46792737f,
    -0.07527261f,
    -0.24187891f,
    -0.14586502f,
    -0.13363829f,
    0.34305644f,
    0.16104954f,
    -0.30996913f,
    -0.10345543f,
    -0.17731011f,
    0.48064870f,
    -0.07097189f,
    0.53429705f,
    -0.15362440f,
    -0.25766462f,
    0.14593042f,
    0.50085461f,
    -0.43975672f,
    -0.02474379f,
    0.27874124f,
    -0.33007067f,
    -0.39865226f,
    0.25861314f,
    0.23178048f,
    -0.23196310f,
    -0.54615444f,
    -0.17788088f,
    0.27217197f,
    0.73122054f,
    -0.38345230f,
    -0.52674669f,
    -0.66629833f,
    -0.54294479f,
    -0.06367176f,
    0.35938168f,
    0.48426640f,
    0.62173373f,
    -0.64770967f,
    -0.41276905f,
    0.32440946f,
    0.03576304f,
    0.40109140f,
    -0.38977125f,
    -0.10815596f,
    -0.74823779f,
    0.58782613f,
    0.28674096f,
    0.34959054f,
    -0.44731274f,
    0.32806471f,
    -0.07625099f,
    0.62361312f,
    0.31860358f,
    -0.24591094f,
    -0.53940070f,
    -0.55042684f,
    0.11818916f,
    0.44067606f,
    -0.40577462f,
    0.80052757f,
    -0.32271063f,
    0.53792948f,
    -0.24778086f,
    0.14924845f,
    -0.42701960f,
    0.03904587f,
    0.32758504f,
    0.32756865f,
    0.30127275f,
    -0.32318282f,
    -0.25253952f,
    0.36545774f,
    0.26999789f,
    0.69140214f,
    0.44890624f,
    0.04248203f,
    -0.41913447f,
    0.22207472f,
    -0.29865992f,
    0.44806328f,
    -0.12156975f,
    0.34976503f,
    0.32042843f,
    -0.33714652f,
    0.61463249f,
    0.57523715f,
    -0.34580010f,
    -0.63898486f,
    0.26938549f,
    0.24280368f,
    -0.03588232f,
    -0.06839799f,
    -0.59311026f,
    -0.21643142f,
    -0.14255419f,
    0.26394799f,
    -0.18823868f,
    -0.05510677f,
    -0.23054110f,
    0.27171350f,
    -0.13257968f,
    0.36153182f,
    0.13847743f,
    0.07985988f,
    0.14589618f,
    -0.22442076f,
    0.33635467f,
    -0.02556983f,
    0.31430566f,
    -0.51711440f,
    0.15189691f,
    0.15585080f,
    -0.14430098f,
    -0.10464599f,
    0.27813551f,
    -0.28701815f,
    -0.12201888f,
    -0.09225810f,
    0.12084046f,
    -0.13603474f,
    -0.01031734f,
    0.41458204f,
    0.18474279f,
    -0.17602175f,
    -0.44265646f,
    -0.20521410f,
    -0.03152185f,
    0.36672378f,
    -0.01491715f,
    -0.08303248f,
    -0.23805343f,
    0.05985329f,
    -0.15243497f,
    0.33765402f,
    0.21139100f,
    -0.26949972f,
    0.10906340f,
    -0.50222677f,
    0.38569108f,
    0.02709175f,
    0.30197331f,
    -0.24389492f,
    0.15881878f,
    -0.03242409f,
    0.11178952f,
    -0.07817083f,
    0.14081030f,
    -0.33180127f,
    -0.30247536f,
    -0.38893154f,
    0.37832999f,
    -0.20197266f,
    0.09162136f,
    0.20958701f,
    0.24039249f,
    0.00526101f,
    -0.36527029f,
    -0.30115065f,
    0.22971600f,
    0.14286888f,
    0.26915357f,
    -0.10385683f,
    -0.28606164f,
    0.35205922f,
    0.11039395f,
    0.42424840f,
    0.28793013f,
    -0.32497758f,
    0.01557236f,
    -0.35946572f,
    0.42633212f,
    0.05544608f,
    0.33360118f,
    -0.49490857f,
    0.22699912f,
    0.27755201f,
    0.43297201f,
    0.13280667f,
    0.37736642f,
    -0.37496567f,
    -0.37594631f,
    -0.26387623f,
    0.21676083f,
    -0.31018081f,
    0.28627717f,
    -0.11973795f,
    0.28146875f,
    0.37691298f,
    0.31583485f,
    0.16399261f,
    -0.30844229f,
    -0.43497598f,
    0.34203207f,
    -0.09252907f,
    0.28815752f,
    0.43917814f,
    -0.27586579f,
    0.03665334f,
    -0.01183999f,
    -0.12139075f,
    -0.19961192f,
    -0.04080138f,
    0.14754908f,
    0.03873874f,
    0.00076442f,
    0.17465904f,
    0.34383416f,
    -0.23327664f,
    0.33536255f,
    -0.33901474f,
    0.43209702f,
    0.22702602f,
    -0.04191015f,
    -0.16819191f,
    0.26485848f,
    0.19634864f,
    0.40926382f,
    0.41229334f,
    0.39093488f,
    0.32166347f,
    0.01031886f,
    0.24201992f,
    0.20631595f,
    0.36183700f,
    0.13461253f,
    -0.04760126f,
    0.42901513f,
    0.54213500f,
    -0.50675189f,
    0.05377539f,
    0.25281167f,
    0.15851009f,
    -0.25035253f,
    0.25145188f,
    -0.13522661f,
    -0.01707712f,
    -0.21881899f,
    0.38465872f,
    0.16669887f,
    -0.45049179f,
    -0.07660408f,
    -0.46765029f,
    0.46176088f,
    0.11180973f,
    0.33594629f,
    0.05721683f,
    0.47765800f,
    0.38341439f,
    0.18174139f,
    0.41076139f,
    0.22251782f,
    -0.11514399f,
    -0.39340460f,
    -0.24257922f,
    0.36180732f,
    0.26253250f,
    -0.09538723f,
    0.04797927f,
    -0.28600416f,
    0.29008818f,
    0.14456323f,
    0.25335962f,
    0.28507954f,
    0.32495576f,
    0.19526002f,
    0.06271189f,
    0.18283916f,
    -0.06519995f,
    0.37743399f,
    -0.23119700f,
    0.35896745f,
    -0.28000674f,
    -0.06682389f,
    0.17539211f,
    0.43149325f,
    -0.24706198f,
    -0.04095709f,
    0.27963302f,
    0.19414659f,
    0.01045629f,
    0.28370926f,
    0.26905823f,
    -0.05774490f,
    0.06649590f,
    -0.48921409f,
    -0.53911579f,
    0.43141168f,
    0.57485008f,
    -0.05764164f,
    0.01890804f,
    0.17546204f,
    0.16042662f,
    0.13039547f,
    0.14859910f,
    0.07024504f,
    -0.01424061f,
    0.33058381f,
    -0.26515993f,
    0.34444201f,
    0.03225540f,
    -0.02175186f,
    0.03723263f,
    -0.03059528f,
    0.24383007f,
    0.17879912f,
    0.33066791f,
    0.10518181f,
    -0.23758620f,
    -0.13768272f,
    -0.09921365f,
    0.13958333f,
    -0.44451025f,
    -0.15656835f,
    -0.07249426f,
    0.01039218f,
    -0.04348008f,
    -0.46449000f,
    -0.61935312f,
    -0.14314109f,
    0.14036106f,
    -0.01983378f,
    -0.08212753f,
    0.07957640f,
    0.17071019f,
    0.31207272f,
    0.22885355f,
    0.17350502f,
    -0.23088577f,
    0.09652743f,
    -0.39440972f,
    0.37240848f,
    0.06545485f,
    0.01284657f,
    -0.13400827f,
    -0.18077417f,
    0.19462323f,
    0.34064755f,
    0.22489618f,
    -0.01824146f,
    -0.14386061f,
    -0.19339739f,
    -0.29800475f,
    0.09695084f,
    -0.49184513f,
    -0.68093139f,
    0.54658675f,
    -0.22274666f,
    0.77601320f,
    -0.36049852f,
    0.48914441f,
    -0.75415581f,
    -0.47787279f,
    0.09894247f,
    -0.06078523f,
    0.45535013f,
    0.44587347f,
    -0.05057218f,
    0.09444445f,
    -0.54791713f,
    -0.11073932f,
    -0.02795522f,
    0.49526736f,
    0.67518240f,
    -0.08263186f,
    -0.01905103f,
    0.07338237f,
    -0.63202381f,
    0.35118172f,
    0.26337999f,
    0.32664892f,
    -0.00020913f,
    0.03655900f,
    0.75472987f,
    0.15273878f,
    0.03947629f,
    -0.64677727f,
    0.55777276f,
    -0.19828615f,
    -0.28506574f,
    0.40034270f,
    0.60335320f,
    -0.68075001f,
    0.51834017f,
    -0.09851210f,
    -0.73652554f,
    0.00695803f,
    0.24384192f,
    0.52523547f,
    0.62833911f,
    -0.54293126f,
    -0.38417366f,
    0.36058351f,
    0.43091735f,
    -0.06808363f,
    -0.45521212f,
    -0.07052310f,
    -0.80810684f,
    0.11508812f,
    0.64882046f,
    0.34143597f,
    -0.59129202f,
    0.66582328f,
    0.25030449f,
    0.15938216f,
    0.36924222f,
    0.33659792f,
    -0.42406750f,
    -0.48200703f,
    0.21459605f,
    0.19623429f,
    -0.20556702f,
    0.44605681f,
    -0.01493149f,
    0.25757045f,
    -0.15447842f,
    -0.34975269f,
    -0.05910169f,
    -0.00945530f,
    0.09214012f,
    0.36591721f,
    0.34463629f,
    -0.07711166f,
    -0.28612199f,
    0.11807614f,
    0.24264863f,
    0.30362058f,
    0.25525638f,
    0.06662253f,
    -0.35583964f,
    -0.34087908f,
    -0.16212505f,
    0.47878930f,
    0.00198414f,
    0.23774211f,
    0.37208459f,
    -0.04670335f,
    0.31733119f,
    0.40836066f,
    -0.27804509f,
    -0.62788594f,
    -0.17568040f,
    0.08523052f,
    0.13972639f,
    0.13177988f,
    0.04449099f,
    -0.02597820f,
    -0.07544317f,
    -0.25160041f,
    0.12819482f,
    0.01027781f,
    -0.23490044f,
    0.30171633f,
    0.19807574f,
    0.22618189f,
    0.07577570f,
    -0.16916436f,
    0.06385868f,
    -0.01246756f,
    0.16254796f,
    -0.02611556f,
    0.18542051f,
    -0.17932199f,
    -0.01984496f,
    0.12531078f,
    0.06473468f,
    -0.01681405f,
    0.21173672f,
    0.14952582f,
    0.09235838f,
    -0.12354951f,
    0.04588358f,
    -0.31437698f,
    -0.40130508f,
    -0.06970896f,
    0.16545343f,
    -0.04260257f,
    -0.10490526f,
    0.11227114f,
    -0.56911236f,
    -0.20668438f,
    0.31060430f,
    -0.00294170f,
    -0.00327011f,
    -0.29983005f,
    -0.09618781f,
    0.44264781f,
    0.31937376f,
    -0.24636212f,
    -0.19681567f,
    -0.07245526f,
    0.17228705f,
    -0.10549945f,
    0.43402901f,
    -0.05509324f,
    -0.13483004f,
    -0.30911237f,
    0.34300813f,
    -0.31625894f,
    0.15039556f,
    0.21337625f,
    -0.25962505f,
    -0.32549965f,
    0.10638236f,
    0.28876486f,
    -0.16542211f,
    0.42643994f,
    0.35735157f,
    0.22330225f,
    0.34696245f,
    0.35610381f,
    -0.20470566f,
    0.12785344f,
    0.05432283f,
    -0.04448583f,
    0.29577279f,
    -0.14406267f,
    -0.28815025f,
    0.31342795f,
    0.31452969f,
    -0.39594123f,
    -0.30172682f,
    0.31928194f,
    0.28681031f,
    -0.10593972f,
    -0.03063693f,
    0.33748496f,
    -0.31737080f,
    -0.33279610f,
    0.02576972f,
    -0.31519291f,
    0.16322626f,
    0.19431117f,
    0.36248896f,
    -0.28269112f,
    0.32931226f,
    0.30499047f,
    0.34527394f,
    0.28161976f,
    0.38173649f,
    0.09084029f,
    -0.24178441f,
    0.15239416f,
    0.31531847f,
    0.39238465f,
    -0.16855438f,
    0.03724696f,
    0.17293581f,
    0.30094975f,
    -0.02230028f,
    0.29957950f,
    0.33520293f,
    0.01047840f,
    -0.05009058f,
    0.07908496f,
    0.33608425f,
    0.00723302f,
    0.01695809f,
    0.34867251f,
    -0.14648929f,
    -0.37568232f,
    -0.01080972f,
    0.29815900f,
    0.55568743f,
    -0.22267266f,
    0.24960168f,
    -0.05678241f,
    0.25602567f,
    0.20888653f,
    0.24540108f,
    0.00543200f,
    0.26288062f,
    0.18063296f,
    -0.39838031f,
    -0.27623442f,
    0.09179071f,
    -0.01830401f,
    0.40830198f,
    -0.05469732f,
    -0.16302210f,
    0.38053888f,
    0.32198697f,
    0.21941704f,
    0.04105366f,
    0.10334348f,
    0.36526629f,
    -0.06791719f,
    0.46083394f,
    -0.09575613f,
    0.35333174f,
    -0.15739430f,
    0.17623106f,
    0.37693948f,
    0.32820517f,
    0.21982427f,
    0.33684433f,
    -0.06211032f,
    0.00078679f,
    0.17163429f,
    0.26377475f,
    -0.29460007f,
    0.10594542f,
    -0.13448146f,
    -0.03159080f,
    0.23533636f,
    0.00780558f,
    -0.37462568f,
    0.10012929f,
    0.10555069f,
    0.23673691f,
    0.01290519f,
    0.25015771f,
    0.29657084f,
    0.31460482f,
    0.11046956f,
    0.14442332f,
    0.07218385f,
    0.09513613f,
    0.04402543f,
    0.38113633f,
    0.00042513f,
    -0.01767903f,
    -0.02551441f,
    -0.00782483f,
    0.12675427f,
    0.27819508f,
    0.03399555f,
    0.10638380f,
    0.17719626f,
    0.09900980f,
    0.06624038f,
    0.03197963f,
    -0.36844090f,
    -0.07629780f,
    -0.19916654f,
    0.16808872f,
    0.30121779f,
    0.14395402f,
    0.00345945f,
    -0.54936087f,
    -0.39020738f,
    0.09467281f,
    0.01485987f,
    0.17820475f,
    0.24333759f,
    0.38822001f,
    0.09001126f,
    -0.02258183f,
    -0.10275790f,
    -0.07807762f,
    0.34496459f,
    0.30834734f,
    -0.03229325f,
    -0.00632950f,
    0.03346941f,
    -0.18725646f,
    0.19900016f,
    0.20618959f,
    0.28006259f,
    0.34746516f,
    0.27729070f,
    0.33539617f,
    0.15213284f,
    -0.04233841f,
    -0.49856886f,
    -0.53164876f,
    0.69657761f,
    -0.18395495f,
    0.60572761f,
    -0.63660878f,
    0.42383796f,
    -0.60776460f,
    -0.36956331f,
    0.23340943f,
    -0.03762886f,
    0.19119751f,
    0.08289956f,
    -0.24738902f,
    0.29001203f,
    -0.61125135f,
    -0.36401403f,
    -0.15775117f,
    0.81363958f,
    0.54307312f,
    0.04711600f,
    0.52204651f,
    -0.58672351f,
    -0.55865312f,
    0.38804457f,
    0.55817527f,
    0.24667619f,
    -0.03607664f,
    -0.38228679f,
    0.73985553f,
    0.51161772f,
    0.24730068f,
    -0.49679655f,
    0.56368667f,
    -0.32562983f,
    -0.25222927f,
    0.36332309f,
    0.74330693f,
    -0.55241495f,
    0.48770663f,
    -0.09682531f,
    -0.55636990f,
    -0.02969699f,
    0.20435655f,
    0.47261667f,
    0.66414368f,
    -0.45744607f,
    -0.22604154f,
    0.25101891f,
    0.44010794f,
    -0.11671726f,
    -0.56906557f,
    -0.06961515f,
    -0.75884491f,
    0.03009203f,
    0.62953836f,
    0.35562429f,
    -0.55462950f,
    0.70576662f,
    0.36082989f,
    0.31898746f,
    0.22400400f,
    0.39964211f,
    -0.44305328f,
    -0.59530818f,
    0.13604277f,
    -0.02629731f,
    -0.26319689f,
    0.29419497f,
    0.18804684f,
    0.34725466f,
    -0.18556562f,
    -0.56745619f,
    0.19758558f,
    -0.06024867f,
    0.06623174f,
    0.20118974f,
    0.32050067f,
    -0.21554105f,
    -0.35155675f,
    0.14246975f,
    0.18794994f,
    0.39431769f,
    0.26583743f,
    -0.00411304f,
    -0.35168397f,
    0.14640012f,
    -0.10054432f,
    0.39171413f,
    0.28142482f,
    0.37066105f,
    0.24011749f,
    0.17177890f,
    0.22033827f,
    0.30021536f,
    -0.37723711f,
    -0.34373823f,
    -0.18560036f,
    -0.36839181f,
    -0.14132906f,
    0.32733321f,
    0.50290179f,
    0.31547421f,
    -0.26313251f,
    -0.40284249f,
    0.24351814f,
    -0.03137790f,
    0.28172648f,
    0.27604136f,
    0.30805987f,
    0.04621940f,
    -0.02881653f,
    -0.15618096f,
    0.06891280f,
    0.43472973f,
    0.06777588f,
    0.02994677f,
    0.00958935f,
    0.19043671f,
    0.14222153f,
    0.22614430f,
    0.19609629f,
    0.03775637f,
    0.22347316f,
    0.24412102f,
    0.23374267f,
    0.29413390f,
    -0.23078746f,
    -0.19601080f,
    -0.29340377f,
    -0.32056287f,
    -0.02484378f,
    0.11918547f,
    0.31766912f,
    0.19087203f,
    -0.34999615f,
    -0.30498007f,
    0.15512492f,
    -0.08383514f,
    0.30227095f,
    0.15068223f,
    0.42506260f,
    0.06681322f,
    0.29796010f,
    -0.22439127f,
    -0.07552072f,
    0.15619814f,
    0.25257275f,
    0.03420546f,
    -0.06820843f,
    0.37822759f,
    -0.05432911f,
    0.20488887f,
    0.49610621f,
    0.20111872f,
    0.04912366f,
    0.24455866f,
    0.26020947f,
    0.15161259f,
    -0.05521832f,
    -0.29477566f,
    -0.18871494f,
    -0.20855248f,
    0.15671887f,
    0.05340849f,
    0.26518849f,
    0.01065159f,
    0.16273658f,
    -0.07755454f,
    0.17988257f,
    -0.09755459f,
    0.27812099f,
    0.20289430f,
    0.38452160f,
    0.29003116f,
    0.40971556f,
    -0.35419750f,
    0.02602829f,
    -0.27443072f,
    0.44703206f,
    -0.11240984f,
    0.06693719f,
    0.30145392f,
    -0.35340145f,
    0.22034517f,
    0.46610856f,
    0.38006300f,
    0.15844649f,
    0.28444546f,
    0.17586242f,
    0.08460065f,
    0.35014021f,
    -0.00208279f,
    0.16781802f,
    -0.26099107f,
    0.08245765f,
    0.16767648f,
    0.25967166f,
    -0.02178338f,
    0.31898415f,
    0.03323188f,
    0.54704744f,
    0.05100152f,
    0.18032564f,
    0.25592166f,
    0.20387468f,
    0.27490398f,
    0.31886908f,
    -0.15111925f,
    -0.05910956f,
    -0.17747778f,
    0.41431090f,
    -0.01024097f,
    0.16173534f,
    0.42280656f,
    0.01350099f,
    0.36492389f,
    0.42418179f,
    0.13269120f,
    0.21260943f,
    0.39814737f,
    0.13064714f,
    0.16720273f,
    0.23594062f,
    -0.09408195f,
    0.21459444f,
    -0.34301147f,
    0.27288496f,
    0.21206839f,
    0.28914598f,
    0.13422482f,
    -0.04299371f,
    -0.24593258f,
    0.36018845f,
    -0.04332466f,
    0.34140635f,
    0.25086236f,
    0.11543577f,
    -0.00900324f,
    0.03528849f,
    0.06180369f,
    0.07675927f,
    -0.02705034f,
    0.40572682f,
    -0.07573646f,
    0.14584275f,
    0.22509632f,
    0.11127093f,
    0.23519608f,
    0.40099663f,
    -0.09471002f,
    0.27880421f,
    0.31035659f,
    0.12836549f,
    0.17291746f,
    0.17693609f,
    -0.40441042f,
    -0.06679830f,
    -0.17942408f,
    0.31051445f,
    0.33458370f,
    0.23439102f,
    0.32368624f,
    -0.26058179f,
    -0.57826483f,
    0.30178818f,
    -0.07482494f,
    0.19713882f,
    0.29435042f,
    0.24361943f,
    0.04564371f,
    -0.03450333f,
    -0.02144980f,
    -0.14089090f,
    0.26686198f,
    0.11790572f,
    -0.09601035f,
    0.09728409f,
    0.11659595f,
    0.11732575f,
    0.11151960f,
    0.25306207f,
    0.05840584f,
    0.27837789f,
    0.43726739f,
    0.20204692f,
    0.21526079f,
    0.02645626f,
    -0.16535862f,
    -0.35338798f,
    -0.16064936f,
    0.39511645f,
    0.19406335f,
    0.25359917f,
    0.22558603f,
    -0.42741740f,
    -0.53593099f,
    0.00338652f,
    0.07314988f,
    0.05408722f,
    0.34369662f,
    0.52721983f,
    0.21794970f,
    -0.09453660f,
    -0.19151995f,
    -0.29703963f,
    0.35405293f,
    0.21316530f,
    0.08340119f,
    0.23845635f,
    -0.02517622f,
    -0.13047609f,
    0.01459231f,
    0.24448439f,
    0.25795144f,
    0.16020095f,
    0.51401311f,
    0.28201061f,
    0.06204351f,
    0.19874543f,
    -0.25297031f,
    -0.40598875f,
    0.54280996f,
    -0.03362616f,
    0.57986128f,
    -0.39909440f,
    0.53663963f,
    -0.67998993f,
    -0.43732244f,
    0.27801299f,
    -0.07257950f,
    0.09307235f,
    0.06355949f,
    0.13325837f,
    0.36714563f,
    -0.37296245f,
    -0.33784005f,
    -0.23107818f,
    0.62921554f,
    0.41872641f,
    0.04342849f,
    0.31318721f,
    -0.32739928f,
    -0.50265604f,
    0.27952656f,
    0.47485682f,
    0.41999212f,
    -0.07132297f,
    -0.31685406f,
    0.53534693f,
    0.38291094f,
    0.25311777f,
    -0.34907770f,
    0.70301241f,
    -0.04461916f,
    -0.25979427f,
    0.19721261f,
    0.56978065f,
    -0.75908834f,
    0.47830465f,
    0.02844381f,
    -0.66482967f,
    0.01222425f,
    0.20095479f,
    0.37764880f,
    0.68557352f,
    -0.58844268f,
    -0.31842798f,
    0.27259019f,
    0.43394762f,
    -0.04026878f,
    -0.45146498f,
    -0.05033032f,
    -0.70856082f,
    0.05039966f,
    0.64084476f,
    0.33761594f,
    -0.39571637f,
    0.42733166f,
    0.35870108f,
    0.23216014f,
    0.14208044f,
    0.28134361f,
    -0.52301937f,
    -0.62115526f,
    0.28816962f,
    0.18728523f,
    -0.21809913f,
    0.26405799f,
    0.14235875f,
    0.11022931f,
    -0.31143376f,
    0.15497370f,
    0.12785918f,
    -0.07318457f,
    0.34779543f,
    0.39235806f,
    0.40555137f,
    -0.38523507f,
    -0.39776224f,
    0.26965633f,
    0.29407594f,
    0.20360422f,
    -0.03402728f,
    0.08179572f,
    -0.56822383f,
    0.29548743f,
    -0.05965043f,
    0.37831789f,
    0.06076129f,
    0.06205313f,
    0.09101424f,
    0.02745440f,
    0.36028671f,
    0.38369951f,
    -0.36290139f,
    -0.47173989f,
    0.06375489f,
    0.21462800f,
    -0.28242606f,
    0.24361491f,
    0.24872182f,
    0.14127497f,
    -0.40486041f,
    0.24615143f,
    0.12548172f,
    -0.09568848f,
    0.24486898f,
    0.02309826f,
    -0.02403174f,
    0.05004382f,
    -0.03624878f,
    0.06828183f,
    0.29480636f,
    0.07584736f,
    -0.01078905f,
    -0.00614952f,
    0.00639617f,
    0.05310171f,
    0.08194578f,
    0.30028284f,
    0.00382918f,
    -0.14434730f,
    0.10190387f,
    0.11362524f,
    0.29043451f,
    0.28940329f,
    -0.12445045f,
    -0.01351496f,
    0.18930355f,
    -0.01618629f,
    -0.13753571f,
    0.02628667f,
    0.26083913f,
    0.10536139f,
    -0.06274965f,
    0.03493297f,
    0.18664196f,
    -0.07739458f,
    0.14959887f,
    0.16587791f,
    0.06437465f,
    -0.10852171f,
    0.25741601f,
    0.07461618f,
    0.27191830f,
    0.10559886f,
    -0.06242289f,
    0.03742639f,
    0.07885933f,
    0.12206599f,
    0.17154083f,
    0.29294911f,
    -0.02042898f,
    0.21516992f,
    0.20627673f,
    0.26590070f,
    0.21379040f,
    0.28773749f,
    -0.26095524f,
    0.26106861f,
    -0.00975762f,
    -0.40152359f,
    -0.11665096f,
    -0.19400665f,
    0.33241192f,
    0.22279978f,
    0.02019054f,
    -0.22626372f,
    0.31739134f,
    0.04478634f,
    -0.31019619f,
    0.11000096f,
    0.20929708f,
    -0.20741557f,
    0.29500264f,
    0.19201437f,
    0.12880170f,
    0.18972887f,
    -0.29218227f,
    0.00433036f,
    0.54899442f,
    0.14568286f,
    0.26367712f,
    0.42834020f,
    -0.05132372f,
    0.38000846f,
    0.16457513f,
    0.30530736f,
    0.03763447f,
    0.27038589f,
    -0.28550214f,
    0.24658290f,
    0.01845977f,
    -0.26718584f,
    0.03632841f,
    0.06547928f,
    0.29509625f,
    0.23900804f,
    -0.02677740f,
    -0.21859208f,
    0.24151558f,
    -0.00474384f,
    0.10393489f,
    0.30553547f,
    0.32177392f,
    -0.25878549f,
    0.33186364f,
    -0.04889933f,
    -0.01945855f,
    0.21636838f,
    -0.47188354f,
    0.04601118f,
    0.44940540f,
    0.36884844f,
    0.22386673f,
    0.36818719f,
    -0.29524744f,
    0.31543317f,
    0.25490984f,
    0.24459511f,
    0.03722547f,
    0.00930736f,
    -0.20758097f,
    0.20245595f,
    0.18280895f,
    -0.02204367f,
    0.48167643f,
    0.27417642f,
    0.30927226f,
    0.36143544f,
    -0.05103245f,
    -0.23108494f,
    0.14855307f,
    -0.10853732f,
    0.11912424f,
    0.22542198f,
    0.21917975f,
    -0.13902557f,
    0.04457293f,
    0.17842680f,
    -0.06214879f,
    0.20643388f,
    -0.48370218f,
    -0.05225781f,
    0.11308576f,
    0.34213850f,
    0.16601059f,
    -0.02480592f,
    -0.04041714f,
    0.08896952f,
    0.30093777f,
    0.23431806f,
    0.03457483f,
    -0.31529480f,
    -0.09231867f,
    0.12861896f,
    -0.02560688f,
    0.19792962f,
    0.47895154f,
    0.26694974f,
    0.35372195f,
    0.36638027f,
    -0.20812699f,
    -0.40688172f,
    0.22049795f,
    -0.03527180f,
    -0.01967303f,
    0.25371048f,
    0.07504453f,
    0.31883195f,
    0.10906682f,
    0.20946015f,
    -0.11832628f,
    -0.19023401f,
    -0.36982179f,
    0.00473406f,
    0.29200751f,
    -0.08716873f,
    -0.01867033f,
    -0.42256147f,
    0.37540305f,
    -0.08996461f,
    0.25674969f,
    0.20068188f,
    -0.10904880f,
    -0.35189766f,
    0.35434660f,
    0.31878084f,
    -0.22548060f,
    0.30746838f,
    0.51107448f,
    0.16294530f,
    -0.09216893f,
    0.24161205f,
    -0.11969976f,
    -0.20056508f,
    0.11193337f,
    0.03992732f,
    -0.46069634f,
    0.29116651f,
    0.37619469f,
    0.26031119f,
    0.10216805f,
    0.13546485f,
    0.19665949f,
    0.08165106f,
    -0.04742563f,
    -0.10351698f,
    0.49036157f,
    -0.56896192f,
    -0.09961945f,
    -0.12857957f,
    0.36786690f,
    0.06106732f,
    0.04199522f,
    -0.08590367f,
    0.03676564f,
    0.10123942f,
    0.22470266f,
    0.23553467f,
    -0.41730043f,
    0.43630987f,
    0.23900221f,
    0.52359027f,
    -0.36321056f,
    0.38111761f,
    -0.57439637f,
    -0.44611278f,
    0.18771555f,
    0.07708829f,
    0.23932706f,
    -0.00055629f,
    0.14933501f,
    0.35432127f,
    -0.43883532f,
    -0.31617105f,
    -0.37565896f,
    0.50065428f,
    0.45850557f,
    -0.06586133f,
    0.17375834f,
    -0.22500624f,
    -0.50410116f,
    0.16116430f,
    0.40129989f,
    0.22171606f,
    -0.07440802f,
    -0.11706896f,
    0.53690559f,
    0.32413018f,
    0.35859853f,
    -0.39056742f,
    0.50498748f,
    0.35876000f,
    -0.31673536f,
    -0.04129850f,
    -0.30755180f,
    -0.50758302f,
    0.06177552f,
    0.43242282f,
    -0.39147630f,
    -0.00601408f,
    -0.05988008f,
    0.20919216f,
    0.16099606f,
    -0.19214432f,
    -0.36874261f,
    0.47308147f,
    0.35343164f,
    0.05804606f,
    -0.33621186f,
    -0.04495462f,
    -0.47829935f,
    -0.18149772f,
    0.37030247f,
    -0.23243679f,
    -0.19266854f,
    -0.27803770f,
    0.03643119f,
    -0.46323574f,
    0.33169493f,
    0.46352419f,
    -0.48746589f,
    0.19503433f,
    0.56850392f,
    0.35439980f,
    -0.48354119f,
    -0.30732024f,
    -0.51729679f,
    -0.56892961f,
    0.16515151f,
    0.39079881f,
    -0.27252465f,
    -0.01947001f,
    -0.30192557f,
    0.14329128f,
    0.46912405f,
    -0.19533990f,
    -0.05450362f,
    0.57306719f,
    0.36693627f,
    0.06458731f,
    -0.48781997f,
    -0.08501232f,
    -0.46826401f,
    -0.47233087f,
    0.48189637f,
    -0.28613722f,
    -0.22191699f,
    -0.11755779f,
    -0.19993134f,
    -0.36486506f,
    0.16915052f,
    0.52476585f,
    -0.27916145f,
    0.40139359f,
    0.38747576f,
    0.23144223f,
    -0.40799272f,
    -0.26172000f,
    -0.55279374f,
    -0.45785409f,
    0.29546094f,
    0.33641341f,
    -0.22437508f,
    -0.03609282f,
    -0.29292044f,
    0.15749638f,
    0.31511286f,
    -0.22405258f,
    -0.08197740f,
    0.41588166f,
    0.36369988f,
    0.13522643f,
    -0.56454509f,
    0.05418268f,
    -0.50548321f,
    -0.52742726f,
    0.46062693f,
    -0.20287868f,
    -0.10937810f,
    0.03399467f,
    -0.16165507f,
    -0.33371031f,
    0.35442597f,
    0.43463421f,
    -0.38586003f,
    0.38851979f,
    0.27496448f,
    0.18041892f,
    -0.34480429f,
    -0.18365346f,
    -0.43425959f,
    -0.35743865f,
    0.37647441f,
    0.25514367f,
    -0.13119414f,
    0.02070300f,
    -0.08995923f,
    0.18536651f,
    0.33704361f,
    -0.45296025f,
    -0.00449826f,
    0.41292962f,
    0.28012329f,
    0.27468106f,
    -0.60911202f,
    -0.02864754f,
    -0.56160998f,
    -0.36196759f,
    0.26305103f,
    -0.08453903f,
    -0.08932050f,
    0.03959263f,
    -0.26241645f,
    -0.28807220f,
    0.34753108f,
    0.60684669f,
    -0.42602473f,
    0.27702242f,
    0.34695047f,
    0.17678489f,
    -0.43393996f,
    -0.08342217f,
    -0.14501704f,
    -0.30199879f,
    0.36040932f,
    0.21237218f,
    -0.07170298f,
    -0.10866779f,
    -0.12108484f,
    0.13081039f,
    0.56454504f,
    -0.47470716f,
    -0.07183152f,
    0.28717190f,
    0.27248004f,
    0.49945396f,
    -0.64772320f,
    0.03738455f,
    -0.29020885f,
    -0.48526803f,
    0.36587039f,
    0.07091522f,
    0.06230493f,
    0.06897947f,
    -0.26538527f,
    -0.26492789f,
    0.40091932f,
    0.58845240f,
    -0.44454038f,
    0.16238549f,
    0.25216135f,
    0.11037461f,
    -0.59573740f,
    -0.21681796f,
    -0.12234613f,
    -0.28894645f,
    0.19462915f,
    0.22642274f,
    -0.26274696f,
    0.03593732f,
    -0.46517587f,
    0.18890719f,
    0.56003571f,
    -0.25395444f,
    0.29474613f,
    0.35336006f,
    0.44837189f,
    0.49987984f,
    -0.64265454f,
    -0.08010405f,
    0.03033031f,
    -0.43024614f,
    0.39343694f,
    -0.13683639f,
    0.02484350f,
    0.20088819f,
    -0.42149541f,
    -0.21838139f,
    0.41407436f,
    0.42810202f,
    -0.54018694f,
    0.41584074f,
    0.10857227f,
    0.22509776f,
    -0.45484105f,
    -0.29166684f,
    -0.09419677f,
    -0.51985991f,
    0.16689086f,
    0.11521273f,
    -0.02643073f,
    0.02246642f,
    -0.21131065f,
    0.02203037f,
    0.66936058f,
    -0.05064366f,
    0.17912558f,
    0.43212184f,
    0.52849311f,
    0.65717804f,
    -0.62111139f,
    0.04483525f,
    0.18025000f,
    -0.51505566f,
    0.26149440f,
    -0.29891363f,
    0.11132043f,
    0.10181426f,
    -0.54823631f,
    -0.13127230f,
    0.42908186f,
    0.27945217f,
    -0.59406298f,
    0.46036589f,
    0.24772148f,
    0.24299835f,
    -0.19306323f,
    -0.45336244f,
    0.03673564f,
    -0.52938104f,
    0.34717682f,
    0.19507445f,
    0.06535810f,
    0.05826602f,
    -0.21978514f,
    -0.05166340f,
    0.42071125f,
    0.09524880f,
    0.28855449f,
    0.62649769f,
    0.52579695f,
    0.32605702f,
    -0.60378969f,
    -0.05749480f,
    0.22794385f,
    -0.62354308f,
    0.57771558f,
    -0.49914962f,
    0.31973031f,
    -0.38702643f,
    -0.57906115f,
    -0.15409996f,
    -0.06633933f,
    -0.22587165f,
    -0.41177055f,
    0.57394153f,
    0.44267467f,
    0.07884651f,
    0.33355340f,
    -0.49481866f,
    0.30306968f,
    -0.53772146f,
    0.30412322f,
    -0.03515523f,
    -0.30546275f,
    -0.02765356f,
    -0.13805300f,
    0.15671022f,
    0.34690672f,
    0.06983057f,
    0.30814037f,
    0.37310773f,
    0.29740399f,
    -0.06808961f,
    -0.68093306f,
    -0.04659677f,
    -0.02064929f,
    -0.42731032f,
    0.51156974f,
    -0.45267415f,
    -0.08016729f,
    -0.06713055f,
    -0.13215272f,
    -0.00456102f,
    -0.42638797f,
    -0.39060169f,
    -0.39010698f,
    0.31383821f,
    -0.23313071f,
    0.37284103f,
    -0.07543432f,
    0.22185634f,
    -0.21918607f,
    0.29712501f,
    0.07373754f,
    -0.14117086f,
    0.04645845f,
    0.00374981f,
    0.05422103f,
    -0.18457207f,
    0.08371069f,
    0.25162026f,
    -0.21055487f,
    -0.02788670f,
    0.09664529f,
    0.32390535f,
    0.23287365f,
    0.01942561f,
    0.20308153f,
    -0.38350198f,
    -0.34747827f,
    -0.19620873f,
    0.34298027f,
    -0.16183375f,
    -0.50853878f,
    -0.18172728f,
    0.34641966f,
    0.33090845f,
    0.10118002f,
    0.00988173f,

    // Layer 2 (32x16)
    0.37792078f,
    -0.33944067f,
    0.48993680f,
    -0.29935569f,
    0.00996871f,
    0.38819522f,
    -0.22594243f,
    -0.30015132f,
    0.61006999f,
    -0.40795672f,
    -0.30750322f,
    0.47297037f,
    -0.03426353f,
    -0.02500270f,
    -0.40997070f,
    0.39569631f,
    0.10631530f,
    0.56516445f,
    0.52504170f,
    -0.10577931f,
    -0.50041950f,
    0.03531884f,
    0.43717331f,
    0.12687182f,
    0.32970607f,
    0.24785691f,
    -0.31612194f,
    -0.44874057f,
    0.05404283f,
    0.47026747f,
    -0.47683132f,
    0.44312558f,
    -0.50372952f,
    -0.33725825f,
    0.54499787f,
    0.16877975f,
    0.48954415f,
    0.24506786f,
    -0.12110737f,
    -0.11006599f,
    -0.26981440f,
    0.15732244f,
    -0.38508517f,
    0.28332484f,
    0.11706808f,
    0.18041277f,
    0.26969180f,
    0.34866539f,
    0.27171859f,
    -0.17888606f,
    -0.13380660f,
    -0.04948056f,
    -0.33873069f,
    0.19581971f,
    0.40248352f,
    0.45424369f,
    0.23835364f,
    0.00554626f,
    0.11756685f,
    0.34520149f,
    -0.06279731f,
    0.56656426f,
    -0.51971102f,
    -0.40585178f,
    0.50334185f,
    -0.23595630f,
    -0.40755329f,
    0.45128259f,
    0.53157222f,
    -0.41735923f,
    -0.11122317f,
    -0.32993108f,
    -0.48562405f,
    0.25200921f,
    -0.22846237f,
    0.23832181f,
    -0.10861296f,
    0.27607089f,
    0.45545620f,
    -0.53434324f,
    -0.14057125f,
    0.44684112f,
    -0.37258327f,
    0.43703917f,
    -0.39244103f,
    -0.32202280f,
    0.48925611f,
    0.52741045f,
    -0.10323339f,
    0.54662311f,
    0.01163766f,
    0.24753240f,
    0.16424319f,
    0.44074759f,
    -0.61643773f,
    -0.49461535f,
    0.65777677f,
    0.03543739f,
    0.53422499f,
    -0.11913886f,
    0.35013020f,
    0.56763583f,
    -0.72876751f,
    -0.55760896f,
    0.15902035f,
    -0.16107543f,
    -0.23374552f,
    -0.66126561f,
    -0.02944460f,
    0.53713971f,
    -0.25167248f,
    0.11786357f,
    0.11342778f,
    0.57503337f,
    0.18656009f,
    0.05174309f,
    -0.38520941f,
    0.50316536f,
    -0.09210869f,
    -0.08013425f,
    0.51519972f,
    0.05903498f,
    -0.14997701f,
    -0.64656746f,
    -0.10867793f,
    -0.03707929f,
    -0.73977500f,
    0.34250772f,
    0.03820428f,
    -0.26174101f,
    -0.45654607f,
    -0.19517402f,
    -0.01690401f,
    0.42341611f,
    0.30114502f,
    0.06173092f,
    -0.23889492f,
    0.19735256f,
    0.45902804f,
    0.33328161f,
    -0.02954451f,
    0.02845227f,
    0.34320986f,
    0.48598379f,
    0.08205791f,
    0.12052193f,
    -0.06113208f,
    -0.06707737f,
    0.08534926f,
    0.14763628f,
    0.06033352f,
    0.16115391f,
    -0.02642091f,
    0.06061840f,
    0.14646706f,
    0.08482490f,
    0.15922120f,
    -0.02506022f,
    0.05058562f,
    -0.21682048f,
    0.48348662f,
    -0.27595741f,
    -0.37300864f,
    -0.13972473f,
    -0.00417277f,
    0.28297520f,
    0.09200402f,
    -0.42754295f,
    -0.18701725f,
    0.28065819f,
    -0.29085481f,
    0.12866285f,
    -0.08879732f,
    0.54413199f,
    -0.48585367f,
    -0.31737706f,
    0.33122563f,
    -0.00470845f,
    0.37307587f,
    -0.09847099f,
    0.31841785f,
    0.21944135f,
    0.34590399f,
    0.35206425f,
    0.46755177f,
    -0.01465341f,
    0.25215888f,
    0.33557403f,
    -0.14432698f,
    0.12970330f,
    0.34782562f,
    0.06747955f,
    0.48768035f,
    0.13355838f,
    0.26444355f,
    0.40106845f,
    0.40238824f,
    -0.43725219f,
    -0.25633806f,
    0.46005067f,
    0.08881821f,
    -0.26121166f,
    0.55178273f,
    -0.04790425f,
    -0.11256857f,
    -0.23769625f,
    0.31170774f,
    -0.21131814f,
    -0.40943286f,
    0.35817826f,
    0.27762678f,
    -0.19599983f,
    0.18846828f,
    0.20474657f,
    0.19902764f,
    0.15586333f,
    -0.06982914f,
    0.23013750f,
    0.26750907f,
    -0.41962725f,
    -0.11476557f,
    0.24911681f,
    0.41008660f,
    0.45751888f,
    0.16700271f,
    0.47743410f,
    0.20318367f,
    0.21092977f,
    0.38626674f,
    0.34427774f,
    -0.25504681f,
    0.11282684f,
    0.27748436f,
    0.41195387f,
    0.21733309f,
    0.24833603f,
    -0.11036091f,
    -0.13332525f,
    0.32902345f,
    0.24954289f,
    0.49222961f,
    0.10657176f,
    0.34100541f,
    0.01502078f,
    -0.53342187f,
    -0.43874079f,
    0.08087658f,
    -0.03780581f,
    0.14307618f,
    -0.27884206f,
    0.12171736f,
    0.06684677f,
    -0.08902115f,
    -0.40650478f,
    -0.22591710f,
    0.39511350f,
    0.34918490f,
    0.47796527f,
    0.30991325f,
    0.18673338f,
    -0.27540177f,
    -0.42526513f,
    -0.11404051f,
    0.43662807f,
    0.30377734f,
    -0.35464594f,
    0.43241078f,
    -0.30919677f,
    -0.12952854f,
    -0.47109336f,
    0.11010276f,
    0.31563988f,
    0.59267473f,
    0.41047162f,
    -0.09208766f,
    0.25351471f,
    -0.61683941f,
    -0.60872930f,
    0.44366053f,
    0.40241662f,
    0.11028076f,
    0.43969843f,
    0.18270308f,
    0.37749532f,
    0.08925954f,
    0.15672703f,
    -0.22540890f,
    -0.11182325f,
    -0.69872546f,
    -0.06833553f,
    -0.45630628f,
    -0.46352446f,
    0.49790442f,
    0.47678503f,
    0.20149134f,
    0.38342673f,
    -0.25164461f,
    0.12247849f,
    0.53813702f,
    -0.23453870f,
    -0.15928018f,
    0.40562469f,
    -0.48750263f,
    0.25933230f,
    -0.15497498f,
    -0.12130942f,
    0.00195762f,
    0.01793457f,
    -0.11406630f,
    0.02338046f,
    0.07887389f,
    -0.15156561f,
    0.12228215f,
    0.05313236f,
    0.07628978f,
    0.10084449f,
    -0.13018626f,
    -0.10435080f,
    -0.15916269f,
    -0.10382209f,
    -0.46723416f,
    0.48118812f,
    0.14451434f,
    0.21181594f,
    0.07218182f,
    -0.04531152f,
    0.28304410f,
    0.33166906f,
    -0.09051671f,
    0.37493086f,
    0.43404394f,
    0.12497362f,
    0.01602383f,
    -0.53814542f,
    0.38943809f,
    0.52910346f,
    0.31466621f,
    -0.16214350f,
    -0.50895607f,
    0.16191146f,
    0.59818470f,
    0.18497346f,
    0.23522636f,
    -0.36810058f,
    0.01375187f,
    0.29569781f,
    -0.47112927f,
    0.39590988f,
    -0.03923339f,
    0.30910778f,
    -0.38937566f,
    -0.24907282f,
    0.15593070f,
    -0.12018485f,
    0.25965622f,
    -0.11435049f,
    -0.00533392f,
    -0.27267620f,
    -0.20383966f,
    -0.34161377f,
    0.43607068f,
    -0.37363178f,
    -0.03361129f,
    0.44864243f,
    -0.17842785f,
    -0.36380136f,
    0.42457703f,
    0.29306376f,
    -0.14272849f,
    0.34384385f,
    -0.47944012f,
    0.24463683f,
    0.29407671f,
    -0.21057805f,
    0.24967781f,
    0.55138367f,
    0.21164303f,
    -0.58746845f,
    0.57519066f,
    0.11187913f,
    0.13648081f,
    -0.17919880f,
    0.18469512f,
    -0.30158630f,
    -0.25409642f,
    -0.20750962f,
    -0.38377032f,
    -0.14888781f,
    0.07726280f,
    0.15332988f,
    -0.06641524f,
    0.08252124f,
    -0.54394948f,
    0.02252003f,
    0.75500369f,
    -0.02169986f,
    -0.01761263f,
    0.47913378f,
    0.29725063f,
    0.40762520f,
    -0.16201006f,
    0.39844722f,
    0.27225175f,
    0.76691371f,
    0.53899026f,
    -0.46021146f,
    -0.18308084f,
    0.65569973f,
    0.29385057f,
    -0.47649628f,
    0.18348005f,
    -0.29457787f,
    0.09048045f,
    0.13375351f,
    -0.09605148f,
    -0.57762009f,
    0.15698309f,
    -0.18842031f,
    0.19535522f,
    -0.24835144f,
    0.31172988f,
    0.20687622f,
    0.42084047f,
    0.20311800f,
    0.49123868f,
    0.20887411f,
    -0.09527159f,
    0.35739788f,
    -0.17567411f,
    0.15061317f,
    0.30762428f,
    0.31236547f,
    0.43876106f,
    -0.36022419f,
    -0.31477568f,
    -0.06015091f,
    0.37059277f,
    -0.15456106f,
    0.01290196f,
    -0.00346184f,
    -0.34731033f,
    0.42891264f,
    0.15046388f,
    0.42218950f,
    0.11167873f,
    0.10912256f,
    0.45409888f,
    -0.18351038f,
    0.47935334f,
    0.30774009f,
    -0.20890790f,
    -0.01769200f,
    -0.33520794f,
    -0.25964633f,
    0.29207021f,
    0.48028329f,
    0.13401029f,
    0.26710993f,
    0.11433823f,
    0.15911762f,
    -0.09786520f,
    0.47241142f,
    -0.30312321f,
    -0.14680175f,
    0.39093992f,
    0.07277697f,
    -0.24051936f,
    -0.32301444f,
    -0.55903327f,
    -0.34816760f,
    0.29198763f,
    0.33290684f,
    0.25148201f,
    -0.42973071f,
    0.47298399f,
    0.20859660f,
    -0.08768397f,
    0.34555572f,
    -0.46101904f,
    -0.29573968f,
    -0.60828954f,
    -0.27040377f,
    0.07391813f,
    -0.28242099f,
    0.56861407f,
    0.19887935f,
    0.23917215f,
    -0.34750232f,
    -0.25169531f,
    0.31247318f,
    -0.21602984f,
    -0.00097567f,
    0.10850455f,
    0.43379578f,
    -0.07470743f,
    0.38991651f,
    0.50309414f,
    0.44434959f,
    0.37968874f,
    0.05415129f,
    -0.62801731f,
    0.11711250f,
    -0.26159894f,
    -0.42541316f,
    -0.09439983f,
    0.58145583f,
    -0.28750733f,
    0.16038248f,
    -0.00800582f,
    -0.19395171f,
    0.47480822f,
    0.35088241f,

    // Layer 3 (16x10)
    -0.55716801f,
    0.48555502f,
    -0.52462953f,
    0.39293441f,
    -0.43666455f,
    0.24252765f,
    -0.42161870f,
    0.29774761f,
    0.01739275f,
    0.34769526f,
    0.41212830f,
    -0.25874674f,
    -0.06367590f,
    -0.55982667f,
    -0.10039340f,
    -0.39623180f,
    -0.54996842f,
    0.66478127f,
    -0.26967296f,
    0.30037728f,
    -0.30890989f,
    -0.48644468f,
    -0.06280535f,
    -0.29606557f,
    0.46705917f,
    0.38521406f,
    -0.36664939f,
    0.39234048f,
    -0.41622663f,
    0.40217346f,
    0.44257736f,
    -0.35100445f,
    0.70234984f,
    -0.52027071f,
    -0.66419280f,
    0.34875241f,
    0.46933639f,
    0.44607112f,
    0.04706477f,
    -0.88017797f,
    0.33024520f,
    -0.12770315f,
    -0.26865011f,
    -0.30254394f,
    0.37252626f,
    0.63282239f,
    0.47049931f,
    -0.38360986f,
    0.04135659f,
    -0.67468554f,
    -0.31960285f,
    0.12514848f,
    0.07260601f,
    -0.26791790f,
    0.29207096f,
    -0.44826382f,
    0.61968255f,
    -0.43757981f,
    -0.46801496f,
    -0.28346151f,
    -0.12880607f,
    0.08848700f,
    0.53817981f,
    0.21969108f,
    -0.12878297f,
    -0.59242922f,
    -0.20757245f,
    -0.21305408f,
    0.15340179f,
    -0.35809407f,
    0.45995104f,
    -0.36458027f,
    0.64064920f,
    0.31010211f,
    -0.31662220f,
    0.12138174f,
    -0.31000721f,
    0.36280099f,
    -0.24233089f,
    -0.38685843f,
    -0.13510041f,
    -0.13309611f,
    -0.40573868f,
    0.49956363f,
    0.45562589f,
    0.00175917f,
    -0.57973617f,
    0.51047885f,
    -0.15677491f,
    -0.06588373f,
    -0.21682003f,
    0.44302815f,
    0.36840826f,
    -0.69602132f,
    -0.02193150f,
    -0.46275723f,
    0.31122014f,
    -0.14630222f,
    0.57454932f,
    0.09867918f,
    0.51475024f,
    -0.66936904f,
    0.32159248f,
    0.45112193f,
    -0.73033881f,
    0.08457705f,
    0.33065224f,
    -0.07698094f,
    -0.22494930f,
    0.16384953f,
    -0.36353227f,
    0.22383918f,
    0.04818644f,
    0.27919278f,
    -0.02600758f,
    0.05890951f,
    -0.36793664f,
    -0.59529382f,
    0.47499144f,
    -0.31663251f,
    0.13440005f,
    0.21450394f,
    -0.00200492f,
    -0.03932692f,
    0.20048961f,
    -0.22501248f,
    0.06341594f,
    -0.22723982f,
    -0.09631153f,
    0.12981121f,
    -0.31640208f,
    0.54913163f,
    0.43409699f,
    -0.13783963f,
    -0.19122879f,
    0.24865194f,
    0.25338870f,
    0.36990547f,
    -0.68458128f,
    -0.34915322f,
    0.39080375f,
    -0.55113220f,
    -0.49093011f,
    -0.43344647f,
    0.04272698f,
    0.23910938f,
    -0.01307257f,
    -0.71717644f,
    0.34498376f,
    0.23804863f,
    -0.40265432f,
    -0.68106210f,
    -0.12899801f,
    -0.10593679f,
    0.28667977f,
    -0.50662041f,
    0.31341061f,
    -0.12839518f,
    0.08886322f,
    0.39008576f
};

// Weight offsets for each layer
#define L1_WEIGHT_OFFSET 0
#define L2_WEIGHT_OFFSET (INPUT_DIM * L1_DIM)
#define L3_WEIGHT_OFFSET (L2_WEIGHT_OFFSET + L1_DIM * L2_DIM)
#define TOTAL_WEIGHTS (L3_WEIGHT_OFFSET + L2_DIM * OUTPUT_DIM)

#endif // MNIST_WEIGHTS_H
