#ifndef MNIST_WEIGHTS_H
#define MNIST_WEIGHTS_H

// Neural Network Weights for MNIST Classifier
// Architecture: 100-32-16-10 (no biases)

// Layer Dimensions
#define INPUT_DIM 100
#define L1_DIM 32
#define L2_DIM 16
#define OUTPUT_DIM 10

// Combined weights array (flattened)
const float nn_weights[] = {
    // Layer 1 (100x32)
    -0.06880255f,
    0.41901410f,
    0.48761305f,
    0.32039529f,
    -0.38102564f,
    0.43201366f,
    0.27989247f,
    0.22032052f,
    0.12815960f,
    0.19300885f,
    0.04306836f,
    0.40636298f,
    -0.19243780f,
    -0.49047533f,
    -0.59323400f,
    0.03679997f,
    0.09956776f,
    0.17733684f,
    0.12837577f,
    0.21481434f,
    0.36899352f,
    -0.52892536f,
    0.26570675f,
    0.14845054f,
    -0.13077950f,
    -0.45216945f,
    0.09981606f,
    -0.09982245f,
    0.04412925f,
    -0.56480932f,
    -0.30373898f,
    0.33499071f,
    -0.01131679f,
    0.34575418f,
    0.37425143f,
    0.16142622f,
    -0.33975446f,
    0.39507812f,
    0.26421392f,
    0.24141964f,
    0.11769944f,
    -0.00066384f,
    0.15580314f,
    0.14233908f,
    -0.19170678f,
    -0.28912258f,
    -0.55571485f,
    0.08326904f,
    0.06415894f,
    0.07260253f,
    -0.02109181f,
    0.25049669f,
    0.19948572f,
    -0.46754515f,
    0.28282940f,
    0.10035837f,
    -0.15765102f,
    -0.29351225f,
    0.11266237f,
    -0.16269806f,
    0.03407401f,
    -0.53221524f,
    -0.26421383f,
    0.48247671f,
    0.37427741f,
    0.52920794f,
    0.27721432f,
    0.28511998f,
    -0.48768336f,
    0.49553671f,
    0.47000945f,
    0.20514494f,
    0.24927984f,
    -0.30158302f,
    -0.14957295f,
    0.25750658f,
    0.01334812f,
    -0.00901548f,
    -0.55054265f,
    0.01367855f,
    -0.09687005f,
    0.17785315f,
    0.24747798f,
    0.14503215f,
    0.28556213f,
    -0.62599045f,
    -0.04550876f,
    -0.08352204f,
    -0.22549835f,
    0.32291344f,
    0.17458116f,
    -0.30504027f,
    0.14793167f,
    -0.08904786f,
    -0.24544080f,
    -0.16208766f,
    0.56654674f,
    0.42986068f,
    -0.30448434f,
    0.32987279f,
    -0.17166013f,
    0.32023549f,
    0.31278211f,
    -0.42290172f,
    0.31062812f,
    -0.54333878f,
    -0.37425920f,
    -0.38253400f,
    0.44948757f,
    0.44736195f,
    -0.08786032f,
    0.58387446f,
    -0.31405869f,
    -0.25530821f,
    0.00405992f,
    -0.40690970f,
    -0.45393187f,
    -0.02154673f,
    -0.44336978f,
    -0.46500352f,
    -0.04935725f,
    0.53666973f,
    0.19416243f,
    -0.65070403f,
    0.06734844f,
    0.38262761f,
    0.12806849f,
    0.03912278f,
    0.50317347f,
    0.42932177f,
    -0.51870590f,
    0.40069920f,
    -0.42496347f,
    0.33149350f,
    0.37745294f,
    -0.38038117f,
    0.45230907f,
    -0.45175010f,
    -0.43596914f,
    -0.35982162f,
    0.38869429f,
    0.42327848f,
    -0.18991502f,
    0.40466717f,
    -0.41735053f,
    -0.27452043f,
    0.15258569f,
    -0.25800472f,
    -0.56763095f,
    0.07925794f,
    -0.59910542f,
    -0.49349779f,
    0.22028783f,
    0.46480367f,
    0.28031611f,
    -0.59332991f,
    0.13027656f,
    0.35638654f,
    -0.32013467f,
    -0.27018243f,
    0.38872701f,
    0.40874332f,
    -0.42440045f,
    0.22319517f,
    -0.25093386f,
    0.17489885f,
    0.38240063f,
    -0.46295282f,
    0.28075436f,
    -0.33995292f,
    -0.33401889f,
    -0.27021223f,
    0.21519543f,
    0.38131079f,
    -0.31582537f,
    0.29885006f,
    -0.42145750f,
    -0.09321146f,
    -0.11976397f,
    -0.29822481f,
    -0.48731279f,
    0.22287212f,
    -0.28026620f,
    -0.37128112f,
    0.36801344f,
    0.48572376f,
    0.33981013f,
    -0.39788017f,
    0.29619282f,
    0.38388598f,
    -0.49959621f,
    -0.16577689f,
    0.36846408f,
    0.34604549f,
    -0.27283782f,
    0.13110615f,
    -0.16528526f,
    0.22637045f,
    0.09962819f,
    -0.29723221f,
    0.14954604f,
    -0.25353014f,
    -0.41199324f,
    -0.42622638f,
    0.23770778f,
    0.31301281f,
    0.11436682f,
    0.45061880f,
    -0.28288871f,
    -0.25237009f,
    -0.07097011f,
    0.00098464f,
    -0.51555049f,
    0.40512660f,
    0.01523301f,
    -0.47789627f,
    0.17373537f,
    0.46506682f,
    0.26094559f,
    -0.49405947f,
    -0.12646861f,
    0.29810971f,
    -0.08120418f,
    0.37825981f,
    0.34727246f,
    0.44327271f,
    0.00242259f,
    0.12384643f,
    0.30140656f,
    0.10135922f,
    -0.10084062f,
    -0.37183735f,
    -0.17920434f,
    0.00185713f,
    -0.48174098f,
    -0.52086920f,
    0.43623140f,
    0.50151676f,
    0.18462589f,
    0.54114515f,
    -0.34157842f,
    -0.49927804f,
    -0.29834542f,
    0.10459764f,
    -0.59287161f,
    0.43785906f,
    0.33034298f,
    -0.29493418f,
    0.28810859f,
    0.41341197f,
    0.12607636f,
    -0.45385695f,
    -0.28214830f,
    0.33586332f,
    0.21710303f,
    0.61985606f,
    0.19705608f,
    0.39050287f,
    -0.12979335f,
    0.04471169f,
    0.29924640f,
    -0.11017606f,
    -0.23610775f,
    -0.07587615f,
    -0.49298459f,
    0.33832097f,
    -0.15401186f,
    -0.32394397f,
    0.38976222f,
    0.39930457f,
    0.21960144f,
    0.43582577f,
    -0.07898517f,
    -0.22836263f,
    -0.02264654f,
    0.35167733f,
    -0.56249803f,
    0.22101605f,
    0.39469388f,
    -0.03826484f,
    0.20460872f,
    0.48433048f,
    0.17257282f,
    -0.16369618f,
    -0.22270755f,
    0.39402363f,
    0.26538035f,
    0.69670838f,
    0.23017755f,
    -0.39992961f,
    -0.34748471f,
    0.28578091f,
    0.07382217f,
    0.02854431f,
    -0.45348483f,
    -0.02900238f,
    -0.53246009f,
    -0.41755131f,
    0.43770173f,
    0.04759582f,
    0.03553072f,
    0.52653086f,
    0.18458366f,
    -0.35573733f,
    0.50829172f,
    -0.40175092f,
    0.34189275f,
    0.46754673f,
    -0.30496776f,
    0.42886296f,
    0.30393115f,
    -0.30955240f,
    0.53360033f,
    -0.02923176f,
    0.46512547f,
    0.36906466f,
    -0.57012224f,
    0.29047719f,
    0.32189134f,
    0.72475529f,
    -0.27573171f,
    0.19559009f,
    0.49480265f,
    0.24137875f,
    -0.26991916f,
    0.33391696f,
    0.14963292f,
    0.28661123f,
    0.20922109f,
    0.22952940f,
    0.06992712f,
    0.17401639f,
    -0.17430894f,
    -0.38684702f,
    -0.69422370f,
    0.00868921f,
    -0.04633104f,
    0.25133464f,
    -0.10593779f,
    0.29736927f,
    0.41283083f,
    -0.53796190f,
    0.43703264f,
    0.14109756f,
    -0.14032818f,
    -0.31348851f,
    0.04852591f,
    0.05925221f,
    0.20311373f,
    -0.47185799f,
    -0.39977074f,
    0.49908069f,
    -0.15473378f,
    0.02749127f,
    0.07816949f,
    0.05726858f,
    -0.46110529f,
    -0.20984675f,
    0.17628556f,
    0.09414493f,
    0.06991147f,
    0.40851757f,
    0.15774073f,
    -0.16228588f,
    0.01670382f,
    -0.56411606f,
    -0.66499317f,
    -0.06487112f,
    -0.57559478f,
    0.34520885f,
    -0.16386157f,
    -0.43230170f,
    0.34666958f,
    -0.53273827f,
    0.37994725f,
    -0.06274452f,
    -0.10746761f,
    -0.24526571f,
    0.19929117f,
    0.35996380f,
    0.06036820f,
    -0.44970146f,
    -0.37022343f,
    0.21901774f,
    0.17252381f,
    0.24993128f,
    -0.18699345f,
    0.13721503f,
    -0.35498065f,
    -0.23376928f,
    0.25053138f,
    0.26629803f,
    0.24054609f,
    0.21274352f,
    0.24720880f,
    -0.54698151f,
    0.27392492f,
    -0.17716818f,
    -0.63084120f,
    -0.12802048f,
    -0.30453658f,
    0.33905050f,
    -0.00961990f,
    -0.29533115f,
    0.20468490f,
    -0.52859402f,
    0.27963528f,
    -0.31177151f,
    -0.20909181f,
    0.05632148f,
    0.24668066f,
    0.07917027f,
    0.01594980f,
    0.00173623f,
    -0.35631749f,
    0.23176387f,
    0.32365593f,
    0.37511903f,
    -0.22446115f,
    0.37085408f,
    -0.31287521f,
    -0.14303567f,
    0.16074857f,
    0.40643039f,
    0.23537970f,
    -0.02248657f,
    0.30602223f,
    -0.43736812f,
    0.17499101f,
    -0.06649990f,
    -0.57018429f,
    -0.20719120f,
    -0.21783982f,
    0.33649951f,
    0.08650265f,
    -0.36570787f,
    0.08919676f,
    -0.56229138f,
    0.01969152f,
    -0.30514544f,
    -0.27677405f,
    -0.11100050f,
    0.34083924f,
    -0.15517391f,
    0.08846492f,
    0.10263094f,
    -0.10257122f,
    -0.09570350f,
    0.15787332f,
    0.23877469f,
    -0.30766273f,
    0.25170049f,
    -0.13721941f,
    -0.05873535f,
    0.16164586f,
    0.29574579f,
    0.25179499f,
    0.03274501f,
    0.37330410f,
    -0.33195445f,
    0.17079353f,
    -0.24678001f,
    -0.44760910f,
    -0.20838799f,
    -0.21310726f,
    0.40468237f,
    0.15944144f,
    -0.26026744f,
    -0.11657483f,
    -0.45222723f,
    -0.03045028f,
    -0.19610439f,
    0.21384370f,
    -0.11155070f,
    0.15829848f,
    0.11122892f,
    0.18449730f,
    -0.00040935f,
    0.04569216f,
    -0.22681695f,
    0.02634883f,
    0.29169631f,
    -0.37010199f,
    0.37087932f,
    -0.06393186f,
    -0.12984149f,
    0.23042904f,
    0.23085730f,
    0.15899365f,
    -0.19249180f,
    0.36507356f,
    -0.27247730f,
    0.36254230f,
    -0.08959959f,
    -0.02349359f,
    -0.23090756f,
    0.04886698f,
    0.32786584f,
    0.23932019f,
    -0.37390631f,
    -0.34826082f,
    0.05889811f,
    -0.07248505f,
    -0.27496931f,
    0.09950729f,
    -0.29245788f,
    0.31887600f,
    0.05611299f,
    0.30998257f,
    0.14910124f,
    0.24134302f,
    -0.37487048f,
    0.11523668f,
    0.27827942f,
    -0.49867415f,
    0.18140410f,
    -0.13772285f,
    0.11558527f,
    0.27932009f,
    0.27682590f,
    0.19699207f,
    -0.26557341f,
    0.44248462f,
    -0.43374646f,
    0.36877224f,
    0.24907151f,
    0.15181400f,
    -0.03587615f,
    0.08577447f,
    0.11155737f,
    0.15370628f,
    -0.04726286f,
    -0.47081318f,
    -0.00597394f,
    -0.09698815f,
    -0.42899126f,
    0.10061667f,
    -0.03919283f,
    0.31719786f,
    -0.19939354f,
    0.21629179f,
    0.20069270f,
    0.32493779f,
    -0.16573885f,
    0.10620015f,
    0.16163610f,
    -0.35024047f,
    0.03731816f,
    -0.36366779f,
    0.02794759f,
    0.23293516f,
    -0.07968904f,
    -0.03387730f,
    -0.31393462f,
    -0.07784190f,
    -0.26417118f,
    0.05587558f,
    0.26220104f,
    0.18613383f,
    -0.04738899f,
    -0.18585469f,
    -0.10162978f,
    0.02455781f,
    0.20712426f,
    -0.44867516f,
    0.28131086f,
    0.07752743f,
    -0.29700261f,
    0.31047717f,
    0.22470215f,
    0.31116137f,
    -0.28878841f,
    -0.09246071f,
    0.34180757f,
    -0.07739489f,
    0.19149175f,
    0.20522965f,
    0.06505823f,
    -0.35577157f,
    -0.22884299f,
    -0.04593520f,
    0.08449758f,
    -0.11471025f,
    -0.15123397f,
    -0.32359269f,
    -0.49652860f,
    -0.16240487f,
    -0.14806108f,
    0.28376105f,
    0.31955305f,
    0.17612837f,
    0.43953356f,
    0.08249080f,
    -0.24820971f,
    -0.16310498f,
    0.29606420f,
    -0.36733052f,
    0.51647377f,
    0.32589254f,
    -0.25655338f,
    0.32280058f,
    0.34174928f,
    0.29217544f,
    -0.41078153f,
    -0.36152768f,
    0.36506423f,
    -0.04615829f,
    0.31224877f,
    0.11044794f,
    -0.20626482f,
    -0.42467153f,
    0.36713147f,
    0.40333790f,
    0.13940863f,
    -0.42141005f,
    0.05904554f,
    -0.38776097f,
    -0.37796172f,
    0.51248890f,
    0.05428346f,
    0.11466604f,
    0.43483740f,
    0.17707038f,
    -0.17296140f,
    0.31566578f,
    -0.29894638f,
    0.35099438f,
    0.25678959f,
    -0.22464895f,
    0.37787506f,
    0.39351404f,
    -0.25308850f,
    0.41929585f,
    -0.01545066f,
    0.20184729f,
    0.22505139f,
    -0.36602646f,
    0.37281170f,
    0.39075837f,
    0.23538613f,
    -0.12603909f,
    0.19306116f,
    0.52826273f,
    0.09994359f,
    -0.36935967f,
    0.57489681f,
    0.43069941f,
    0.04583640f,
    0.23886597f,
    0.11406183f,
    -0.11403558f,
    0.44031632f,
    -0.42123538f,
    -0.59017748f,
    -0.55259931f,
    -0.23272252f,
    0.14471191f,
    0.28860113f,
    0.01526899f,
    0.26590228f,
    0.39800671f,
    -0.53134817f,
    0.27155489f,
    0.46310320f,
    -0.31560084f,
    -0.33915019f,
    0.04870178f,
    -0.06520613f,
    0.28890309f,
    -0.52556431f,
    -0.22775100f,
    0.06668068f,
    -0.50801373f,
    -0.16095880f,
    0.38999492f,
    -0.11492105f,
    -0.43125427f,
    -0.07031878f,
    0.15676855f,
    0.19575211f,
    0.32764077f,
    0.36137947f,
    0.24913953f,
    0.21531284f,
    -0.14171021f,
    -0.59649122f,
    -0.51090974f,
    -0.02470100f,
    -0.19487567f,
    0.29554826f,
    -0.15612039f,
    -0.11327475f,
    0.41549239f,
    -0.55635297f,
    0.48538768f,
    0.16549148f,
    -0.20728645f,
    -0.42952961f,
    0.22335346f,
    0.14118645f,
    0.36447778f,
    -0.42677596f,
    -0.60979718f,
    0.45870391f,
    -0.20141619f,
    0.31052926f,
    0.32743719f,
    0.13323796f,
    -0.18391041f,
    0.28064120f,
    0.09301890f,
    0.16534659f,
    0.05323282f,
    0.13192175f,
    0.14847282f,
    0.32020724f,
    0.00123495f,
    -0.30649576f,
    -0.58189428f,
    0.07825447f,
    0.06335548f,
    0.20105195f,
    -0.02855010f,
    0.15570045f,
    0.18960698f,
    -0.50355464f,
    0.29613167f,
    0.15769613f,
    -0.01873915f,
    -0.20290132f,
    0.03848360f,
    0.00023251f,
    -0.01044668f,
    -0.35651028f,
    -0.17411470f,
    0.41179064f,
    -0.22689010f,
    0.15409042f,
    0.36871329f,
    0.29195473f,
    0.26602015f,
    0.28416476f,
    0.10565848f,
    0.18047647f,
    0.01877420f,
    0.04565442f,
    0.19672041f,
    0.34344107f,
    0.25507179f,
    0.09239357f,
    -0.35922793f,
    0.17176816f,
    0.26636446f,
    0.09560460f,
    0.30731583f,
    0.32772306f,
    0.31159613f,
    -0.55629802f,
    0.29374379f,
    0.19194944f,
    0.14646758f,
    -0.25573400f,
    0.11223233f,
    0.23129188f,
    -0.01348142f,
    0.01324494f,
    0.14942378f,
    0.32877749f,
    -0.18046042f,
    -0.11001172f,
    0.16708186f,
    0.27346718f,
    0.47364587f,
    0.12756623f,
    0.11610976f,
    0.15287399f,
    0.19550443f,
    0.36902937f,
    0.14692125f,
    0.35659808f,
    -0.01889178f,
    0.08246467f,
    0.24358663f,
    -0.03639547f,
    0.06751416f,
    0.31825298f,
    0.22953644f,
    0.13179062f,
    0.36417854f,
    0.05809613f,
    0.36236346f,
    0.25749144f,
    0.21038680f,
    0.19452746f,
    0.05178120f,
    0.38408899f,
    0.20045139f,
    0.26953498f,
    0.48689193f,
    -0.05443377f,
    -0.26565534f,
    -0.27096525f,
    0.23090070f,
    0.21240993f,
    0.55555177f,
    -0.00840197f,
    0.16638021f,
    0.14411899f,
    0.35288969f,
    0.53648114f,
    0.14717340f,
    0.20538114f,
    0.18791412f,
    0.17351155f,
    0.03058668f,
    -0.03001994f,
    0.06235976f,
    0.20786321f,
    0.25808069f,
    0.18983479f,
    0.31119412f,
    -0.05981408f,
    0.44897857f,
    0.36650145f,
    -0.15145849f,
    0.47258675f,
    0.02681471f,
    0.26688305f,
    0.15408982f,
    0.44559738f,
    0.64267772f,
    -0.51327765f,
    -0.28235936f,
    -0.09862313f,
    0.09194176f,
    0.19022088f,
    0.45793059f,
    -0.02048007f,
    -0.02987272f,
    0.26138821f,
    0.30230880f,
    0.44234520f,
    0.13483840f,
    0.17793718f,
    0.18349344f,
    0.04006864f,
    0.22676051f,
    0.38361043f,
    0.22963597f,
    0.21998520f,
    0.28023326f,
    0.35641417f,
    0.13864817f,
    -0.09126692f,
    0.26225278f,
    0.33335721f,
    0.01721414f,
    -0.12418139f,
    0.07141822f,
    0.27277052f,
    0.28891730f,
    0.41674656f,
    0.46899226f,
    -0.04497791f,
    -0.35426638f,
    -0.14653951f,
    -0.12684786f,
    -0.05816611f,
    0.23690128f,
    0.05186557f,
    -0.05179508f,
    0.03476453f,
    -0.05228842f,
    -0.11429475f,
    0.05193895f,
    0.32710955f,
    -0.08396188f,
    0.03618069f,
    0.18285973f,
    0.10070533f,
    0.19850738f,
    0.27658650f,
    0.29444614f,
    0.39681134f,
    -0.10149296f,
    0.21602593f,
    0.03004628f,
    -0.01548954f,
    0.16495071f,
    -0.29287353f,
    0.09646844f,
    0.27724263f,
    0.10855411f,
    0.17945869f,
    0.11373753f,
    0.27251744f,
    0.09763631f,
    -0.19866538f,
    -0.26291174f,
    0.06847347f,
    0.26587245f,
    0.05294493f,
    -0.28618357f,
    -0.18848607f,
    -0.29580587f,
    -0.46040007f,
    0.21436483f,
    0.23144144f,
    0.04345259f,
    0.36325330f,
    0.28745911f,
    0.25482184f,
    0.30382207f,
    -0.24775642f,
    0.25323972f,
    0.38306296f,
    -0.23670298f,
    0.31503618f,
    0.07616878f,
    -0.17040186f,
    0.30600509f,
    -0.02203885f,
    0.14939761f,
    0.10958047f,
    -0.38160878f,
    0.29907280f,
    0.14310497f,
    0.57192928f,
    0.21134284f,
    -0.33915758f,
    -0.36804870f,
    0.26646021f,
    0.09178727f,
    -0.16865243f,
    -0.45341578f,
    -0.13249607f,
    -0.48048854f,
    -0.39336535f,
    0.43318182f,
    0.18564264f,
    -0.03814064f,
    0.43508342f,
    0.22464702f,
    -0.35658455f,
    0.38911515f,
    -0.34950644f,
    0.29738483f,
    0.25573951f,
    -0.19392198f,
    0.57381243f,
    0.48815042f,
    -0.35176855f,
    0.43201983f,
    -0.08769736f,
    0.33339006f,
    0.57121491f,
    -0.51363438f,
    0.48186433f,
    0.41822326f,
    0.65405387f,
    0.27140823f,
    0.01784306f,
    0.30707258f,
    0.36202112f,
    -0.19721699f,
    0.48244864f,
    0.66506290f,
    0.36360079f,
    0.77900851f,
    -0.20601253f,
    -0.01202162f,
    0.53499418f,
    -0.54935539f,
    -0.62190813f,
    -0.59579408f,
    -0.38202471f,
    0.28773528f,
    0.53618461f,
    0.35753834f,
    0.30580890f,
    0.46897355f,
    -0.85462850f,
    -0.22080241f,
    0.37267169f,
    -0.24878965f,
    -0.53276956f,
    -0.11537836f,
    0.38912362f,
    0.72470969f,
    -0.67536396f,
    -0.15209080f,
    -0.56008911f,
    -0.38898796f,
    0.09158283f,
    0.39052251f,
    0.29489478f,
    -0.38925821f,
    0.27813593f,
    0.06930445f,
    0.18309410f,
    0.27882537f,
    0.05702196f,
    0.22316565f,
    0.34374845f,
    -0.35006723f,
    -0.66757035f,
    -0.46890765f,
    -0.39814016f,
    0.14583853f,
    0.45659962f,
    0.18277720f,
    -0.04882750f,
    0.32525128f,
    -0.73923272f,
    0.18922368f,
    0.30436587f,
    -0.07571666f,
    -0.53011477f,
    0.09473728f,
    0.21403773f,
    0.37309283f,
    -0.48465657f,
    -0.58856386f,
    0.02123144f,
    -0.28266919f,
    0.36176297f,
    0.18230295f,
    0.53596836f,
    0.00574525f,
    0.20557223f,
    -0.47365618f,
    -0.13442686f,
    -0.26809230f,
    -0.20271567f,
    0.05299101f,
    0.34172341f,
    -0.02532971f,
    -0.26481304f,
    -0.57504249f,
    0.04453004f,
    0.17145084f,
    0.13281332f,
    0.35188657f,
    -0.12228003f,
    0.30603278f,
    -0.44375545f,
    0.18962009f,
    0.17838417f,
    0.35545921f,
    -0.11667781f,
    0.03742827f,
    0.21267140f,
    -0.21772195f,
    -0.22553258f,
    0.15990779f,
    0.13540556f,
    -0.23796517f,
    0.19477215f,
    0.05149911f,
    0.42623135f,
    0.22620378f,
    0.25141096f,
    -0.43802673f,
    -0.20964855f,
    -0.37351739f,
    -0.19257659f,
    -0.12813395f,
    0.45798910f,
    0.20282166f,
    0.36684057f,
    -0.11066036f,
    0.11842407f,
    0.25024825f,
    -0.15962829f,
    0.51096928f,
    0.06659384f,
    0.41378510f,
    0.12882228f,
    0.25083819f,
    0.12775004f,
    0.27358502f,
    0.16666152f,
    -0.22556333f,
    0.30173066f,
    -0.35993233f,
    0.31550556f,
    0.29150194f,
    -0.05866573f,
    0.03385454f,
    -0.15108378f,
    0.31120989f,
    0.06104191f,
    0.19501001f,
    0.25645524f,
    -0.33154085f,
    0.05304512f,
    -0.33696562f,
    -0.14952229f,
    -0.13619445f,
    0.39799741f,
    -0.08258614f,
    0.29572964f,
    0.41627982f,
    0.16478926f,
    0.27817428f,
    -0.08565444f,
    0.19561012f,
    0.30991945f,
    0.48453805f,
    0.53739583f,
    0.18095522f,
    0.32494786f,
    0.35379237f,
    0.33155227f,
    -0.21862365f,
    0.45440894f,
    -0.42229444f,
    0.20351112f,
    0.21694633f,
    -0.38062876f,
    -0.33225816f,
    -0.43452078f,
    0.43576404f,
    -0.26687729f,
    -0.25516602f,
    0.31339982f,
    0.23313357f,
    0.30204621f,
    0.23398444f,
    0.40479422f,
    -0.05483077f,
    0.36791527f,
    -0.35253856f,
    -0.07020285f,
    0.21507798f,
    -0.18764903f,
    0.23481824f,
    0.31589583f,
    -0.02766464f,
    0.24074677f,
    0.44410098f,
    0.28162521f,
    0.07867333f,
    0.26081094f,
    0.26902202f,
    -0.02067936f,
    0.17957312f,
    0.31188312f,
    0.16958199f,
    -0.52757686f,
    -0.31044427f,
    -0.41084671f,
    -0.38951540f,
    -0.19811383f,
    0.19147074f,
    -0.08689028f,
    0.21791978f,
    0.22021347f,
    -0.15129130f,
    0.34047031f,
    0.28575322f,
    0.34422952f,
    0.12317019f,
    0.14037520f,
    0.10788342f,
    -0.34570861f,
    0.23107889f,
    0.30976972f,
    0.32222378f,
    0.21294861f,
    -0.03388936f,
    0.19855067f,
    0.08883934f,
    -0.31947410f,
    0.24202260f,
    0.21945162f,
    -0.04418464f,
    -0.40741473f,
    -0.16411290f,
    0.21691540f,
    0.37526694f,
    -0.29304358f,
    0.24246077f,
    0.40028399f,
    -0.24911258f,
    -0.10648041f,
    0.18805599f,
    0.33979824f,
    0.30505413f,
    -0.06655449f,
    -0.26140627f,
    0.21657577f,
    0.29512784f,
    0.03260425f,
    0.37882927f,
    0.16150011f,
    0.23164634f,
    -0.47348604f,
    0.24591057f,
    0.14336137f,
    0.19345726f,
    0.29816166f,
    0.09245361f,
    -0.07445274f,
    0.02893501f,
    0.01501552f,
    0.13199860f,
    0.22075745f,
    0.03378460f,
    -0.39997661f,
    -0.04518302f,
    0.24443066f,
    0.09194862f,
    -0.14160879f,
    0.36377108f,
    0.13590150f,
    0.04470503f,
    -0.41079542f,
    -0.12714407f,
    0.42502698f,
    0.33979413f,
    0.17050442f,
    -0.34159249f,
    0.34068444f,
    -0.44408554f,
    -0.46908700f,
    0.56639630f,
    0.37654209f,
    -0.11626669f,
    0.26292327f,
    0.44858357f,
    -0.30881214f,
    0.37751484f,
    -0.08834132f,
    0.37322539f,
    0.12921321f,
    -0.35658771f,
    0.34224719f,
    -0.04937097f,
    -0.11413618f,
    0.40369162f,
    -0.49737695f,
    0.07712643f,
    0.49921647f,
    -0.57131714f,
    0.03820018f,
    0.41911855f,
    0.36069328f,
    0.23411548f,
    -0.80497497f,
    -0.60750377f,
    0.40172851f,
    -0.22103313f,
    -0.23490503f,
    -0.56033003f,
    0.25590646f,
    -0.81778497f,
    -0.35382888f,
    0.71484792f,
    0.08990262f,
    -0.52918768f,
    0.66913188f,
    0.53366685f,
    -0.72132635f,
    0.72634506f,
    -0.23794723f,
    0.68166095f,
    0.48209897f,
    -0.27481747f,
    0.65248585f,
    0.62594575f,
    -0.35763359f,
    0.62122047f,
    -0.76639473f,
    0.48151723f,
    0.66956967f,
    -0.74834377f,
    0.46579573f,
    0.55664372f,
    0.33044338f,
    0.27433324f,
    -0.08012163f,
    0.59257835f,
    0.38886905f,
    -0.14639932f,
    0.63909405f,
    0.69982767f,
    0.36908302f,
    0.64523339f,
    -0.33952060f,
    -0.01548787f,
    0.57060879f,
    -0.59793574f,
    -0.75962454f,
    -0.68130124f,
    -0.27577740f,
    0.32651889f,
    0.41948688f,
    0.43262169f,
    0.28033090f,
    0.51177472f,
    -0.74512285f,
    -0.27339658f,
    0.39751366f,
    -0.37825999f,
    -0.69884026f,
    -0.17849295f,
    0.30593204f,
    0.56960320f,
    -0.76204395f,
    -0.31895724f,
    -0.52032673f,
    -0.10210294f,
    0.14857545f,
    0.29603681f,
    0.05440098f,
    0.10026028f,
    0.34854314f,
    -0.60845512f,
    -0.23422459f,
    -0.51102692f,
    -0.02712239f,
    -0.30875257f,
    0.06622440f,
    -0.41782776f,
    -0.64490306f,
    -0.41084519f,
    0.04797861f,
    0.16823509f,
    -0.30905321f,
    -0.41700080f,
    0.27182814f,
    -0.00430557f,
    -0.58994722f,
    0.19730826f,
    0.19847871f,
    0.10215279f,
    -0.05640616f,
    -0.23135926f,
    0.03059352f,
    -0.64498812f,
    -0.44098365f,
    -0.44244665f,
    -0.06354499f,
    -0.16914330f,
    0.25485250f,
    0.23686671f,
    0.16163217f,
    0.26409209f,
    0.26096073f,
    -0.53713441f,
    -0.08162517f,
    -0.48218918f,
    0.03573411f,
    -0.32690004f,
    -0.04976016f,
    0.22925161f,
    0.34601825f,
    0.02434973f,
    0.23362491f,
    0.23074436f,
    -0.35143581f,
    -0.11771452f,
    0.05305368f,
    -0.46130592f,
    -0.33161923f,
    0.28910109f,
    0.28845674f,
    0.25757074f,
    0.35873854f,
    -0.16761427f,
    -0.13014971f,
    -0.52266347f,
    0.21197034f,
    0.12353157f,
    0.19969781f,
    0.01864442f,
    0.09826961f,
    0.16929378f,
    0.18065503f,
    0.14778592f,
    0.05739985f,
    -0.39440113f,
    -0.06591924f,
    -0.39765170f,
    0.37609231f,
    -0.10165536f,
    -0.19723630f,
    0.17714332f,
    0.36711818f,
    0.13414480f,
    0.13941787f,
    0.23915251f,
    -0.25139049f,
    -0.26551041f,
    0.16342466f,
    -0.44863480f,
    0.01953021f,
    0.27456218f,
    -0.01068634f,
    -0.01113342f,
    0.19268247f,
    -0.02087444f,
    -0.24678662f,
    -0.38156164f,
    0.27834311f,
    0.10866226f,
    0.48019978f,
    0.24236247f,
    -0.09809288f,
    -0.18509965f,
    0.19604950f,
    -0.17899777f,
    -0.20787187f,
    -0.22416154f,
    0.37084866f,
    -0.38384220f,
    0.29758644f,
    0.29966903f,
    -0.36753160f,
    0.18704075f,
    0.28110951f,
    0.47886631f,
    0.32251635f,
    0.29841289f,
    -0.06309175f,
    -0.11980064f,
    -0.09183233f,
    -0.57953584f,
    0.50276881f,
    0.34568536f,
    -0.48725268f,
    0.38180053f,
    0.26906165f,
    0.43251771f,
    0.15917887f,
    -0.55037409f,
    0.22195418f,
    0.07282537f,
    0.04758502f,
    -0.27939892f,
    -0.12432257f,
    -0.13793646f,
    -0.27145565f,
    -0.44933456f,
    -0.24881783f,
    -0.06266311f,
    -0.42259219f,
    -0.27849561f,
    0.26036629f,
    0.15883861f,
    0.24562921f,
    -0.03473926f,
    0.24544829f,
    -0.44575757f,
    -0.31037456f,
    -0.31439626f,
    0.20122436f,
    -0.45579144f,
    -0.40906179f,
    -0.24186189f,
    0.32158402f,
    0.42367157f,
    0.40947607f,
    0.35578945f,
    0.30479869f,
    0.34831667f,
    0.39976290f,
    0.29888016f,
    0.21985762f,
    -0.53301674f,
    -0.27266803f,
    -0.25894052f,
    0.10648465f,
    0.36820292f,
    0.04278808f,
    0.16743696f,
    -0.18291458f,
    -0.18675265f,
    -0.00965884f,
    -0.07388915f,
    0.28022435f,
    -0.08778325f,
    0.14110571f,
    0.29720998f,
    -0.01446604f,
    -0.29011559f,
    0.33312604f,
    -0.22990571f,
    -0.10290811f,
    -0.53127617f,
    -0.41520268f,
    0.18864141f,
    -0.39793903f,
    0.23628381f,
    0.26346338f,
    -0.36770278f,
    0.26406881f,
    -0.17010373f,
    0.28339052f,
    0.13734175f,
    0.06280136f,
    0.20290048f,
    -0.09702875f,
    -0.31025463f,
    0.32808369f,
    0.32199982f,
    0.35705784f,
    0.34778628f,
    0.11291023f,
    -0.20904271f,
    -0.05003221f,
    0.29265410f,
    -0.00172770f,
    -0.46496636f,
    0.02010950f,
    0.33442408f,
    -0.17627126f,
    -0.08089680f,
    0.28905368f,
    -0.11713757f,
    0.09123772f,
    -0.29730779f,
    -0.40897012f,
    -0.24642424f,
    0.04916716f,
    -0.05883539f,
    0.34950757f,
    -0.25301069f,
    0.25768122f,
    -0.39262205f,
    0.09177556f,
    0.17492357f,
    0.13744205f,
    0.11564504f,
    -0.37348193f,
    0.05723815f,
    0.60524476f,
    0.31381330f,
    0.38760895f,
    0.25380027f,
    0.13126357f,
    -0.17188482f,
    0.01471889f,
    0.30119532f,
    -0.65382886f,
    -0.60626274f,
    -0.01098268f,
    0.25374457f,
    0.02742202f,
    0.19493024f,
    0.24595760f,
    0.13439482f,
    -0.22046332f,
    -0.07619876f,
    -0.21772656f,
    -0.39545143f,
    0.32327569f,
    -0.54036504f,
    -0.15659899f,
    -0.50666034f,
    0.09408627f,
    -0.34424031f,
    -0.51112491f,
    -0.35591674f,
    -0.09918938f,
    0.19665943f,
    -0.48819724f,
    -0.04944104f,
    -0.43551371f,
    -0.72750068f,
    0.49306402f,
    -0.00924936f,
    -0.32682279f,
    -0.08735798f,
    0.08433491f,
    -0.18392184f,
    -0.28273985f,
    0.51940131f,
    0.66207868f,
    -0.60071898f,
    -0.03279223f,
    0.07826850f,
    -0.62284231f,
    0.41364053f,
    0.25572589f,
    0.73618686f,
    -0.14461520f,
    0.01025283f,
    0.06070168f,
    -0.12315395f,
    -0.04358221f,
    0.69316000f,
    -0.80936867f,
    0.52875698f,
    0.66893756f,
    -0.19896850f,
    -0.26463455f,
    0.52053308f,
    -0.41700494f,
    0.36349750f,
    -0.14924769f,
    0.34152511f,
    0.19304533f,
    -0.13080795f,
    0.21517594f,
    0.66261679f,
    0.40431213f,
    0.51207685f,
    0.20732836f,
    0.52362752f,
    0.29385105f,
    -0.32394299f,
    -0.66982836f,
    -0.36615333f,
    -0.28793305f,
    0.16075051f,
    0.34790242f,
    0.44234487f,
    0.27307084f,
    0.62552196f,
    -0.62599099f,
    -0.03074917f,
    0.27083099f,
    0.08114359f,
    -0.68702024f,
    0.57061750f,
    0.41362253f,
    0.43699527f,
    -0.43977407f,
    0.09721080f,
    -0.49341857f,
    0.05864181f,
    0.15567553f,
    0.38272569f,
    -0.16076438f,
    0.07714724f,
    -0.01438276f,
    0.09519146f,
    -0.02279514f,
    0.05149534f,
    0.28585583f,
    -0.16971584f,
    -0.37881923f,
    0.04266841f,
    -0.51881391f,
    0.02038677f,
    0.18079595f,
    -0.23990017f,
    -0.38870198f,
    -0.22900069f,
    0.07528196f,
    -0.53522170f,
    -0.47108692f,
    0.11536007f,
    -0.02000293f,
    -0.47868702f,
    -0.04726832f,
    -0.18436031f,
    -0.10190526f,
    0.01779847f,
    -0.00955629f,
    -0.01040091f,
    -0.05493788f,
    0.40134645f,
    0.21796796f,
    0.32943317f,
    0.05124233f,
    0.23061943f,
    0.11246385f,
    0.04997397f,
    -0.25884101f,
    0.15327772f,
    0.28647226f,
    -0.35763186f,
    -0.37626654f,
    0.24831344f,
    -0.10477353f,
    0.01542521f,
    0.15703227f,
    -0.09728155f,
    -0.23344189f,
    -0.38998389f,
    0.07261171f,
    -0.30810758f,
    -0.59107798f,
    -0.03345291f,
    -0.35766682f,
    -0.58382738f,
    0.18781421f,
    -0.30449957f,
    -0.41348222f,
    -0.21412468f,
    0.03635153f,
    0.26803917f,
    0.26934561f,
    0.31689766f,
    0.23013823f,
    0.00873924f,
    0.03865109f,
    0.30929804f,
    -0.01564822f,
    0.45898044f,
    -0.02003297f,
    0.29269117f,
    0.21399069f,
    -0.21875429f,
    -0.38025677f,
    0.22063723f,
    0.07514384f,
    0.26699394f,
    0.24766409f,
    -0.07823776f,
    -0.36548555f,
    -0.09880689f,
    -0.03131234f,
    -0.20999210f,
    -0.43408105f,
    0.11751966f,
    -0.32230175f,
    -0.41852814f,
    0.14882244f,
    -0.01957287f,
    -0.33643588f,
    -0.19962426f,
    0.14826983f,
    0.29216585f,
    0.45842561f,
    0.38380709f,
    0.32414424f,
    -0.46647978f,
    0.45634562f,
    -0.06702582f,
    -0.36520588f,
    0.39125946f,
    -0.33398566f,
    0.10917524f,
    0.02466525f,
    0.32693741f,
    -0.06421588f,
    0.16823648f,
    0.34559119f,
    -0.21216439f,
    0.15696207f,
    -0.33318961f,
    0.35262325f,
    0.04074529f,
    -0.36791712f,
    -0.18458016f,
    0.33142957f,
    0.07449311f,
    -0.19327188f,
    0.34301630f,
    0.26052687f,
    0.26542789f,
    0.20954083f,
    0.34809652f,
    0.39595583f,
    0.55646932f,
    0.17831288f,
    0.31785420f,
    0.39047262f,
    -0.05233347f,
    -0.21513911f,
    -0.19313391f,
    -0.28381294f,
    0.22711609f,
    -0.40447447f,
    0.03846321f,
    0.11800574f,
    -0.18310806f,
    0.31234583f,
    0.22995655f,
    0.14174764f,
    -0.46540567f,
    0.31640035f,
    -0.52593029f,
    0.43477765f,
    -0.25058040f,
    -0.27519158f,
    -0.08779833f,
    0.39329249f,
    0.19706939f,
    0.26025176f,
    0.24609476f,
    0.25025779f,
    0.40802801f,
    0.35098070f,
    0.27206734f,
    0.27972546f,
    -0.08633345f,
    0.20556428f,
    0.26837900f,
    0.14208859f,
    0.40042433f,
    0.04074635f,
    0.28358054f,
    -0.13491869f,
    0.08679821f,
    -0.13700306f,
    -0.19992231f,
    0.32584107f,
    -0.02176459f,
    -0.14639176f,
    0.25411502f,
    -0.04340231f,
    -0.24064575f,
    0.24072480f,
    -0.40513226f,
    -0.37986550f,
    -0.41153684f,
    0.12389416f,
    0.15110697f,
    -0.30576468f,
    0.28219521f,
    0.34353378f,
    -0.45264721f,
    0.10006382f,
    -0.00627479f,
    0.29921290f,
    -0.30055559f,
    0.08662248f,
    0.19102745f,
    0.20731299f,
    0.20696850f,
    0.06443217f,
    0.56284052f,
    0.11091390f,
    -0.12798409f,
    0.28849781f,
    0.37277538f,
    0.24315260f,
    0.03550503f,
    0.18380930f,
    -0.11895850f,
    -0.30189708f,
    0.03308925f,
    -0.03549324f,
    -0.01166006f,
    0.21738261f,
    0.05706516f,
    -0.38361624f,
    -0.17903371f,
    0.14401937f,
    -0.10878739f,
    -0.24877547f,
    0.13461111f,
    -0.05121323f,
    -0.21061499f,
    -0.10135356f,
    0.16714685f,
    -0.06800763f,
    -0.53306073f,
    -0.17397033f,
    -0.03287039f,
    0.07180728f,
    0.23238619f,
    0.13689129f,
    0.23659709f,
    0.23561166f,
    0.15007524f,
    0.28731456f,
    0.24049497f,
    0.23979147f,
    0.19098070f,
    -0.05998509f,
    -0.39150646f,
    -0.28146121f,
    0.03588042f,
    0.06278468f,
    0.02438878f,
    0.26693168f,
    0.30009735f,
    -0.50630498f,
    -0.00142073f,
    0.12598473f,
    -0.21285425f,
    -0.80113238f,
    -0.30479035f,
    -0.26405972f,
    -0.25002214f,
    -0.06227269f,
    0.08833423f,
    -0.27480781f,
    -0.51303804f,
    -0.22222294f,
    0.03175540f,
    -0.00982989f,
    0.42303213f,
    0.13843083f,
    -0.34944957f,
    0.49568740f,
    -0.20913032f,
    0.01513058f,
    0.54571390f,
    -0.20871980f,
    0.61694431f,
    -0.27384111f,
    0.12252955f,
    0.60767299f,
    -0.48139855f,
    -0.59862190f,
    -0.54423267f,
    -0.49040043f,
    -0.22540908f,
    0.25217518f,
    0.63070261f,
    -0.07263195f,
    0.66467774f,
    -0.65659434f,
    -0.49789676f,
    0.05708878f,
    -0.27702588f,
    -0.74369115f,
    0.48448005f,
    0.44745994f,
    0.51779634f,
    -0.32207209f,
    0.66646320f,
    -0.56390363f,
    0.18630493f,
    -0.51615965f,
    -0.33126363f,
    -0.09948593f,
    -0.48549113f,
    -0.21992972f,
    -0.03158189f,
    0.33875462f,
    -0.33502799f,
    0.48915103f,
    0.46883506f,
    -0.59056324f,
    -0.37152255f,
    0.47141370f,
    -0.09999955f,
    -0.53342998f,
    0.33544046f,
    0.01593992f,
    0.14399596f,
    0.39836678f,
    0.11486284f,
    0.18828166f,
    0.60169214f,
    -0.24811599f,
    0.73745757f,
    -0.63688427f,
    0.36625868f,
    0.53945440f,
    -0.17309432f,
    0.19621661f,
    0.11577488f,
    0.27576593f,
    0.24759603f,
    -0.34569332f,
    -0.21012412f,
    0.13563932f,
    0.01022173f,
    -0.18430127f,
    0.39803872f,
    0.22114341f,
    0.18313293f,
    0.37007529f,
    0.38181326f,
    -0.54915744f,
    -0.49570319f,
    -0.39518422f,
    -0.09659262f,
    -0.48588601f,
    -0.02558018f,
    0.22103888f,
    0.18057863f,
    0.13024388f,
    -0.02353076f,
    -0.24093346f,
    -0.02816023f,
    -0.50897461f,
    0.01871626f,
    -0.40644678f,
    0.36742559f,
    0.37182286f,
    0.12266632f,
    -0.22757629f,
    0.29833829f,
    -0.38538679f,
    0.21115741f,
    0.06581663f,
    -0.26067975f,
    0.08370727f,
    0.33559996f,
    0.00767525f,
    0.06570613f,
    -0.04598354f,
    0.21865854f,
    -0.11320495f,
    0.43967250f,
    -0.23977850f,
    0.15167221f,
    -0.32279381f,
    0.09980430f,
    0.00271350f,
    0.00078891f,
    -0.29620796f,
    0.12499899f,
    -0.04637143f,
    -0.31095096f,
    -0.18366890f,
    -0.18062541f,
    -0.34930852f,
    -0.19425239f,
    -0.35747540f,
    0.01615020f,
    0.10213121f,
    -0.05375817f,
    0.07621781f,
    0.39660048f,
    0.02540740f,
    0.17794913f,
    0.41211054f,
    0.12290560f,
    0.34253597f,
    0.47621217f,
    0.22291824f,
    0.11389001f,
    -0.35945261f,
    0.22509137f,
    -0.52438521f,
    -0.44717491f,
    0.31419829f,
    0.41474119f,
    -0.04084895f,
    0.36609539f,
    0.37757301f,
    -0.19420168f,
    -0.10702663f,
    -0.13050444f,
    -0.50747901f,
    -0.43082219f,
    0.06159106f,
    -0.38638192f,
    -0.07715049f,
    -0.25190821f,
    0.05777780f,
    -0.29271141f,
    -0.37488535f,
    0.29935721f,
    0.20878816f,
    0.53491992f,
    -0.03919565f,
    0.32224855f,
    0.41512394f,
    -0.11547605f,
    0.26405540f,
    -0.04953923f,
    -0.10314935f,
    0.32429600f,
    -0.39669675f,
    0.29785112f,
    -0.57625175f,
    -0.45385373f,
    0.40564618f,
    0.21015774f,
    -0.02496438f,
    -0.35389176f,
    0.09335012f,
    -0.29217377f,
    0.30322203f,
    0.08421624f,
    -0.44604573f,
    -0.03379747f,
    0.36652014f,
    -0.48387697f,
    0.32582590f,
    0.36323473f,
    0.26890019f,
    -0.03179703f,
    -0.37751129f,
    0.30540493f,
    0.25625414f,
    -0.03678512f,
    0.33158466f,
    0.38154599f,
    0.14135550f,
    0.17903961f,
    -0.16029072f,
    0.19018914f,
    0.09553555f,
    0.28208858f,
    -0.29382789f,
    0.18531851f,
    0.10758191f,
    -0.19491439f,
    0.04319637f,
    0.05496366f,
    0.08763804f,
    -0.37993240f,
    0.15526341f,
    -0.37113202f,
    0.01758615f,
    -0.09169204f,
    0.12522082f,
    0.14136370f,
    0.12537836f,
    0.23904768f,
    0.02894677f,
    0.19400884f,
    0.05425272f,
    0.17304699f,
    -0.14959699f,
    -0.02278932f,
    0.19936538f,
    0.05861808f,
    0.42243928f,
    0.29890299f,
    0.19960268f,
    0.23129015f,
    0.36166188f,
    0.04488366f,
    0.24781218f,
    0.17651479f,
    0.21909314f,
    0.22227484f,
    0.30475584f,
    0.21004097f,
    -0.46597660f,
    0.07074788f,
    0.09819744f,
    -0.08320865f,
    0.17315309f,
    0.19436976f,
    -0.25300699f,
    0.11652637f,
    0.25331068f,
    0.11500836f,
    -0.39717972f,
    0.34037703f,
    -0.37307462f,
    -0.47283864f,
    0.05394612f,
    0.26660776f,
    0.12583189f,
    -0.10623010f,
    0.23106787f,
    0.24588476f,
    -0.15592000f,
    0.22811900f,
    0.01034706f,
    0.01696681f,
    0.22437222f,
    -0.23366582f,
    0.05864096f,
    0.06074886f,
    0.20271413f,
    0.14390685f,
    0.22833078f,
    0.21208429f,
    -0.25440562f,
    -0.03541138f,
    -0.00427250f,
    0.01858749f,
    -0.07276897f,
    0.19304982f,
    0.01263955f,
    0.11434555f,
    -0.08445138f,
    -0.00875380f,
    -0.34227905f,
    0.03808454f,
    -0.18386604f,
    0.15873398f,
    -0.09936596f,
    0.22441970f,
    0.13901728f,
    -0.15994748f,
    0.04091828f,
    -0.04076878f,
    -0.19367997f,
    0.23987527f,
    0.11555067f,
    -0.30644003f,
    0.23160926f,
    -0.10835413f,
    0.01216198f,
    0.23299202f,
    0.24952149f,
    0.04521574f,
    -0.10050755f,
    0.36587349f,
    0.00240019f,
    -0.23484202f,
    -0.23344271f,
    -0.13481985f,
    -0.49955493f,
    0.29149368f,
    0.05121984f,
    0.26583278f,
    0.10602219f,
    0.25805140f,
    -0.65985352f,
    -0.26384017f,
    -0.22493640f,
    -0.03463142f,
    -0.50687462f,
    0.35615629f,
    0.20256051f,
    0.10752711f,
    -0.02544217f,
    0.47927213f,
    -0.01773157f,
    0.51676518f,
    0.37907150f,
    0.11257828f,
    0.30641934f,
    -0.14769824f,
    0.34907943f,
    0.55272555f,
    -0.17804244f,
    0.64908165f,
    -0.47947627f,
    -0.31346500f,
    0.60665292f,
    -0.67888391f,
    -0.64670795f,
    -0.57885158f,
    -0.54071599f,
    -0.69278669f,
    0.42968136f,
    0.48565447f,
    0.13102104f,
    0.69280469f,
    -0.64132529f,
    -0.47657770f,
    -0.09049054f,
    -0.52543384f,
    -0.48338547f,
    0.14248466f,
    0.09555738f,
    0.49570975f,
    -0.36471525f,
    0.47405916f,
    -0.65683246f,
    0.25542298f,
    -0.63433778f,
    -0.50840235f,
    0.10179787f,
    -0.46144515f,
    -0.35436499f,
    -0.06257038f,
    0.47064602f,
    -0.30273533f,
    0.59799129f,
    0.47104558f,
    -0.70262009f,
    -0.36253229f,
    0.41080910f,
    -0.06393147f,
    -0.54191327f,
    0.42838103f,
    0.10141309f,
    0.32165885f,
    0.33841714f,
    -0.00354085f,
    0.12492031f,
    0.50319523f,
    -0.32801437f,
    0.67910618f,
    -0.53775901f,
    0.34505865f,
    0.47232571f,
    -0.29887885f,
    0.35227636f,
    0.18462065f,
    0.39570168f,
    0.17573795f,
    -0.20306358f,
    -0.21159868f,
    0.14391990f,
    -0.23538207f,
    -0.10647959f,
    0.28133973f,
    0.23986226f,
    0.13630436f,
    0.23042198f,
    0.32138857f,
    -0.28925067f,
    -0.38163182f,
    -0.19932596f,
    -0.15635908f,
    -0.32510695f,
    0.02056396f,
    0.18500166f,
    0.32863662f,
    0.14285241f,
    0.21071836f,
    -0.23538542f,
    -0.11417480f,
    -0.50651646f,
    0.16752912f,
    -0.36979449f,
    0.19631387f,
    0.23599623f,
    0.23070517f,
    -0.12521145f,
    0.45060766f,
    -0.43652445f,
    0.14176726f,
    -0.16219461f,
    -0.29415339f,
    0.17563875f,
    -0.08166818f,
    -0.06646989f,
    0.04517886f,
    0.19258127f,
    0.13512415f,
    -0.04933752f,
    0.17850597f,
    0.09911972f,
    -0.24440601f,
    -0.17261146f,
    0.17539053f,
    -0.22193122f,
    0.19251908f,
    0.37489027f,
    0.20284988f,
    -0.02361338f,
    -0.13151364f,
    0.06393643f,
    -0.11876707f,
    -0.16106735f,
    0.37488440f,
    -0.33826575f,
    0.31721631f,
    0.28355125f,
    0.10050727f,
    0.10050720f,
    0.27290267f,
    -0.53267598f,
    0.18463193f,
    0.06843528f,
    -0.29883698f,
    0.25364572f,
    0.02446651f,
    0.16660921f,
    0.29761800f,
    0.33683795f,
    0.20957796f,
    -0.38081577f,
    0.28079507f,
    0.14153454f,
    -0.09974262f,
    0.26702270f,
    0.35221145f,
    -0.29779670f,
    0.27464834f,
    0.26579532f,
    0.23230918f,
    0.22719432f,
    0.03123412f,
    0.26982662f,
    -0.26039538f,
    -0.14501031f,
    0.39182574f,
    -0.05722411f,
    0.20962435f,
    0.11883464f,
    0.22600806f,
    0.17813677f,
    0.19039391f,
    -0.32286444f,
    0.32383958f,
    0.35438898f,
    0.12272121f,
    0.35957322f,
    -0.00692030f,
    0.39111072f,
    0.26054364f,
    0.43301067f,
    0.12116283f,
    -0.46567541f,
    -0.00845563f,
    0.04347443f,
    0.08328707f,
    0.29781109f,
    0.21911775f,
    0.17576802f,
    0.45884949f,
    -0.01174762f,
    0.16142114f,
    0.27252781f,
    0.04847421f,
    0.07500169f,
    -0.24668702f,
    -0.01965524f,
    0.34361646f,
    0.25870535f,
    0.32292724f,
    -0.34409028f,
    0.04135263f,
    0.07195623f,
    -0.02792164f,
    -0.19076714f,
    0.29966226f,
    0.24527667f,
    -0.10099991f,
    0.31678584f,
    -0.28463441f,
    0.32255566f,
    0.27881184f,
    0.42847994f,
    0.13031168f,
    -0.06738915f,
    0.17030922f,
    -0.18017335f,
    0.30740270f,
    0.24312074f,
    -0.01402924f,
    0.15980271f,
    0.20837073f,
    0.24226265f,
    0.10868303f,
    0.06360327f,
    0.06191461f,
    0.02907829f,
    0.01847530f,
    -0.05055716f,
    0.33060950f,
    0.30633214f,
    0.42247358f,
    -0.17320715f,
    0.06862196f,
    0.19684525f,
    -0.21218531f,
    -0.12854680f,
    0.25722328f,
    0.37492350f,
    -0.33286214f,
    0.25691488f,
    -0.26910335f,
    -0.04731162f,
    0.13312593f,
    0.17013173f,
    0.29698431f,
    -0.03090721f,
    0.23810367f,
    -0.27747566f,
    0.04820385f,
    0.08193770f,
    -0.03408273f,
    -0.16586053f,
    0.21007855f,
    0.21218751f,
    0.16756320f,
    -0.27926013f,
    0.11256047f,
    -0.04016552f,
    0.06252835f,
    -0.25324801f,
    0.32046846f,
    0.29671881f,
    0.24092609f,
    0.14819273f,
    0.05146982f,
    0.19720858f,
    0.03786810f,
    -0.07731476f,
    0.19260456f,
    0.20829280f,
    -0.51571351f,
    0.25050658f,
    0.06731661f,
    -0.03397619f,
    0.04554034f,
    0.08159474f,
    0.10799982f,
    -0.25206184f,
    0.34598741f,
    0.04299631f,
    0.06100186f,
    -0.09368022f,
    -0.14832155f,
    -0.40906212f,
    0.14580986f,
    0.18786307f,
    0.15146807f,
    -0.07555380f,
    0.22390935f,
    -0.42112598f,
    -0.25215468f,
    -0.29215369f,
    0.30265853f,
    -0.10914098f,
    0.11179124f,
    0.25928280f,
    0.20787482f,
    0.37148696f,
    0.31746349f,
    0.17287676f,
    0.23447870f,
    0.14769079f,
    -0.60503960f,
    0.26960614f,
    0.03365719f,
    0.29095122f,
    0.04712420f,
    -0.11839438f,
    0.07870065f,
    -0.53310496f,
    0.26338449f,
    0.40394092f,
    -0.39482778f,
    -0.02088822f,
    -0.37690532f,
    -0.28069949f,
    -0.00438692f,
    -0.10956662f,
    0.40962172f,
    0.33176026f,
    0.22714676f,
    -0.58948541f,
    -0.30399409f,
    -0.21991144f,
    0.15319969f,
    -0.26761740f,
    0.22659834f,
    -0.14711894f,
    0.07062650f,
    0.36497766f,
    0.37401879f,
    0.20968832f,
    0.29625124f,
    0.31654632f,
    0.12012742f,
    0.20275357f,
    -0.40541738f,
    0.41264975f,
    0.38192472f,
    -0.17559369f,
    0.30463076f,
    -0.44820777f,
    -0.22178786f,
    0.49630544f,
    -0.48875698f,
    -0.35944259f,
    -0.47388443f,
    -0.58153176f,
    -0.44519213f,
    0.20977297f,
    0.50912178f,
    0.26388261f,
    0.56349933f,
    -0.42366222f,
    -0.47402018f,
    0.03636660f,
    -0.30892617f,
    -0.44269308f,
    0.19197854f,
    -0.06876405f,
    0.39368907f,
    -0.27262667f,
    0.13898130f,
    -0.53221089f,
    0.29609886f,
    -0.60931021f,
    -0.48895669f,
    -0.11512916f,
    -0.50961930f,
    -0.22384064f,
    0.02577196f,
    0.37273803f,
    -0.36428097f,
    0.65161830f,
    0.46188912f,
    -0.60243946f,
    -0.36680683f,
    0.50930542f,
    -0.20812823f,
    -0.57267141f,
    0.38041827f,
    0.10264789f,
    0.09733561f,
    0.33180833f,
    0.05363826f,
    -0.00834971f,
    0.52829617f,
    -0.31166881f,
    0.55800509f,
    -0.43462238f,
    0.38591158f,
    0.64374059f,
    -0.27477419f,
    0.37498230f,
    0.01521283f,
    0.45999721f,
    0.22610587f,
    -0.54481065f,
    -0.04494303f,
    -0.15948963f,
    -0.47244582f,
    -0.26731914f,
    0.29113874f,
    0.38463572f,
    0.08372557f,
    0.36522698f,
    0.25039023f,
    -0.09179655f,
    -0.47398186f,
    -0.20758267f,
    -0.29841593f,
    -0.38566232f,
    -0.02701993f,
    0.25032240f,
    0.18403208f,
    0.21494795f,
    0.26196149f,
    -0.08409464f,
    0.16074374f,
    -0.10257179f,
    0.35014340f,
    -0.27298772f,
    0.28681844f,
    0.27123249f,
    0.15233825f,
    -0.29425272f,
    -0.38518208f,
    -0.01131851f,
    -0.29716143f,
    -0.20409688f,
    0.11944227f,
    -0.15953961f,
    -0.24258918f,
    -0.12746237f,
    0.27140641f,
    0.12824903f,
    0.13645242f,
    0.22971645f,
    -0.00317393f,
    0.33430117f,
    -0.26739514f,
    -0.09781227f,
    -0.21930273f,
    0.04760190f,
    0.18805961f,
    0.20521408f,
    0.21875861f,
    0.19424245f,
    0.17055027f,
    0.04545924f,
    0.11319900f,
    0.38562590f,
    0.12994310f,
    -0.04529817f,
    0.09723534f,
    0.12957238f,
    0.26196444f,
    -0.02168179f,
    0.01674527f,
    0.13506860f,
    -0.22980072f,
    -0.19148590f,
    0.02408401f,
    0.09334226f,
    0.35017890f,
    0.02203340f,
    -0.03234044f,
    0.22138783f,
    0.05068981f,
    0.25001243f,
    0.11653033f,
    0.15471132f,
    0.28057265f,
    0.23719528f,
    0.16761982f,
    0.09863739f,
    0.14906712f,
    0.25178179f,
    0.20625482f,
    0.11444634f,
    0.12402629f,
    0.18570431f,
    0.14910477f,
    0.13833588f,
    0.03306399f,
    -0.06884970f,
    0.27628365f,
    0.22898950f,
    0.25770548f,
    0.14462344f,
    0.26844624f,
    0.23308222f,
    -0.29641125f,
    -0.11988074f,
    0.03052603f,
    0.46492928f,
    0.41475260f,
    0.10162237f,
    -0.32358500f,
    0.32571197f,
    0.01832302f,
    0.11041632f,
    0.33978558f,
    0.06265566f,
    0.51307452f,
    0.13396695f,
    0.37422130f,
    0.19554070f,
    0.26887900f,
    0.13376081f,
    0.34750384f,
    0.19060923f,
    0.25266793f,
    0.28028557f,
    0.25208616f,
    0.16908634f,
    0.19765872f,
    -0.21591903f,
    0.19131027f,
    0.26969680f,
    0.01766249f,
    0.10369249f,
    0.54261965f,
    -0.08663660f,
    -0.50028682f,
    0.01366997f,
    -0.06803055f,
    0.38163781f,
    0.43951380f,
    0.19197193f,
    -0.20482388f,
    0.31422874f,
    0.07432213f,
    -0.02167619f,
    0.26594573f,
    0.31996736f,
    0.35024559f,
    0.34974554f,
    0.40473247f,
    0.07093551f,
    0.33658090f,
    0.16349305f,
    0.44062462f,
    0.14353965f,
    -0.04164876f,
    0.23586540f,
    0.08927670f,
    0.22412992f,
    0.29823530f,
    -0.03113955f,
    0.22781566f,
    0.11069884f,
    0.13475646f,
    0.03669819f,
    0.37604737f,
    0.21206917f,
    -0.40686753f,
    0.07167853f,
    -0.21991149f,
    0.17666243f,
    0.19428734f,
    -0.15749061f,
    -0.10956447f,
    -0.08194447f,
    -0.06348579f,
    -0.03389180f,
    0.11409867f,
    0.39472511f,
    0.06572427f,
    0.25907218f,
    -0.03585391f,
    0.10055363f,
    0.08641232f,
    0.14996031f,
    0.35258245f,
    0.02630255f,
    0.09826355f,
    -0.03193427f,
    -0.00140828f,
    -0.00509588f,
    0.37821859f,
    0.22584894f,
    0.35232404f,
    0.15676905f,
    0.14859398f,
    0.34390390f,
    0.17400192f,
    0.21069884f,
    0.16561465f,
    0.36823931f,
    -0.36040297f,
    0.38397384f,
    0.42698312f,
    -0.45382193f,
    0.00420696f,
    -0.49037364f,
    -0.06035480f,
    -0.04272514f,
    0.10353407f,
    0.21294057f,
    0.25006330f,
    -0.12027603f,
    -0.34533584f,
    0.02355813f,
    -0.41522607f,
    -0.27054632f,
    0.29677364f,
    -0.09785322f,
    0.27950975f,
    -0.83328855f,
    -0.01005454f,
    0.11564959f,
    -0.07683080f,
    0.39116311f,
    -0.13641125f,
    0.06534602f,
    0.12255655f,
    0.43035600f,
    0.43905160f,
    0.19644685f,
    0.20085557f,
    0.19017522f,
    -0.01839665f,
    0.31471696f,
    0.50958359f,
    -0.07883505f,
    0.11941364f,
    -0.57104093f,
    0.19670862f,
    -0.00515850f,
    -0.04878164f,
    0.25155213f,
    -0.07913616f,
    -0.17045340f,
    -0.33871248f,
    0.19968717f,
    -0.32010886f,
    -0.27820441f,
    0.31570402f,
    0.19247897f,
    0.37799588f,
    -0.51459950f,
    0.15616827f,
    0.11368488f,
    -0.24737082f,
    -0.01060215f,
    -0.17159200f,
    0.16860320f,
    0.09180625f,
    0.62933475f,
    0.64708936f,
    0.14732486f,
    0.28868160f,
    0.22149684f,
    -0.25629008f,
    0.17838743f,
    -0.34288105f,
    0.08185596f,
    0.45991141f,
    -0.14542617f,
    0.31092155f,
    -0.33547580f,
    -0.05494172f,
    0.24451736f,
    -0.45444083f,
    -0.43058461f,
    -0.49204928f,
    -0.51686877f,
    -0.30700055f,
    0.08721658f,
    0.48297679f,
    0.18342201f,
    0.48282158f,
    -0.49690169f,
    -0.35123956f,
    -0.15175754f,
    -0.12260327f,
    -0.29545707f,
    0.17388257f,
    -0.07095947f,
    0.40507421f,
    0.13523132f,
    0.23908934f,
    -0.31605819f,
    -0.25072390f,
    -0.48895875f,
    0.38131377f,
    -0.54776341f,
    -0.33395973f,
    -0.15934499f,
    -0.19799374f,
    0.39385679f,
    -0.40280089f,
    0.73595762f,
    0.32148132f,
    0.01267603f,
    -0.31689194f,
    -0.11595653f,
    -0.28195074f,
    0.02322121f,
    -0.10289770f,
    0.18474141f,
    -0.43085477f,
    0.26620916f,
    0.22679819f,
    -0.28917229f,
    0.68000787f,
    0.19453698f,
    -0.11365072f,
    0.06473443f,
    -0.20253563f,
    0.53116661f,
    0.26319319f,
    -0.29312280f,
    -0.36563680f,
    0.54414505f,
    -0.28767335f,
    -0.34163341f,
    0.31850967f,
    -0.55850667f,
    0.06599768f,
    -0.01786608f,
    -0.44419801f,
    0.10005402f,
    -0.41691458f,
    0.67435527f,
    -0.18844534f,
    0.09517846f,
    -0.14519201f,
    -0.37030265f,
    -0.40708730f,
    0.22635984f,
    -0.04193795f,
    -0.13347533f,
    -0.49673602f,
    0.39596736f,
    0.17289180f,
    -0.49296504f,
    0.72151387f,
    0.35235626f,
    -0.43189242f,
    0.20842089f,
    -0.32928810f,
    0.42288518f,
    0.02441481f,
    -0.32875869f,
    -0.35714263f,
    0.48228329f,
    -0.41717508f,
    -0.69195300f,
    0.18725242f,
    -0.44168928f,
    0.11880280f,
    0.12768266f,
    -0.31246990f,
    0.11690164f,
    -0.26174748f,
    0.75295371f,
    -0.08748242f,
    0.21614042f,
    -0.22391909f,
    -0.25147679f,
    -0.33108720f,
    0.10940100f,
    -0.11648186f,
    0.09685695f,
    -0.29611158f,
    0.19876000f,
    0.28906173f,
    -0.55847907f,
    0.55632418f,
    0.25245085f,
    -0.36846280f,
    0.02275392f,
    -0.25148830f,
    0.60002953f,
    -0.01363171f,
    -0.25348490f,
    -0.28435344f,
    0.31646106f,
    -0.47988632f,
    -0.60260034f,
    0.17443997f,
    -0.18894447f,
    0.06522308f,
    0.11240648f,
    -0.21886583f,
    0.39497712f,
    -0.24698581f,
    0.69572908f,
    0.03852875f,
    0.18309879f,
    -0.25327310f,
    -0.08905847f,
    -0.36361369f,
    -0.02114495f,
    0.07452700f,
    0.29619393f,
    0.03239523f,
    0.20658658f,
    0.27193964f,
    -0.34319487f,
    0.58380651f,
    0.32131779f,
    -0.12269216f,
    -0.08561853f,
    -0.15380475f,
    0.54112661f,
    0.01587421f,
    -0.22188304f,
    -0.21911380f,
    -0.22021709f,
    -0.42609578f,
    -0.64293975f,
    0.29946887f,
    -0.01702415f,
    0.15901583f,
    0.11342655f,
    -0.14120522f,
    0.38966030f,
    -0.27033734f,
    0.57167637f,
    0.03849499f,
    0.25135025f,
    -0.30900156f,
    -0.01713826f,
    -0.40078562f,
    -0.11446893f,
    0.24673419f,
    0.32703930f,
    0.45736825f,
    0.22784084f,
    0.39155874f,
    -0.33648366f,
    0.53987271f,
    0.28031126f,
    -0.12795314f,
    -0.06127715f,
    -0.21121751f,
    0.48684210f,
    -0.08343216f,
    -0.22082359f,
    -0.17393914f,
    -0.29663172f,
    -0.40151322f,
    -0.39936122f,
    0.23252381f,
    -0.00649755f,
    0.41728982f,
    0.34076911f,
    -0.42314947f,
    0.30458528f,
    -0.33403623f,
    0.39062583f,
    -0.19159290f,
    0.31110379f,
    -0.37321174f,
    -0.04393715f,
    -0.35876900f,
    -0.08783735f,
    0.33843607f,
    0.01603630f,
    0.27420110f,
    0.36627713f,
    0.41499451f,
    -0.41799137f,
    0.33253932f,
    0.32395762f,
    -0.26782787f,
    0.01752997f,
    -0.32210806f,
    0.46421352f,
    -0.09978613f,
    -0.25995472f,
    0.03047806f,
    -0.36053002f,
    -0.39280015f,
    -0.37755987f,
    0.37294450f,
    -0.15944205f,
    0.27674431f,
    0.23962246f,
    -0.40579429f,
    0.08974450f,
    -0.32973620f,
    0.29849607f,
    -0.11044782f,
    0.40136883f,
    -0.34423375f,
    -0.12962091f,
    -0.24181837f,
    -0.11149533f,
    0.06443138f,
    0.07673420f,
    0.09508797f,
    0.31472200f,
    0.53436869f,
    -0.43813708f,
    0.35912862f,
    0.32584971f,
    -0.13866642f,
    0.18047710f,
    -0.26505205f,
    0.49272570f,
    0.04077362f,
    0.03683007f,
    -0.06282075f,
    -0.47615081f,
    -0.42278722f,
    -0.34363979f,
    0.21583097f,
    -0.27902341f,
    0.49933389f,
    -0.38171276f,
    -0.40133500f,
    -0.45985162f,
    -0.41217580f,
    0.37218344f,
    -0.19768234f,
    0.33710450f,
    0.02346641f,
    0.03250676f,
    -0.24680708f,
    -0.04976302f,
    -0.29132047f,
    -0.08593407f,
    -0.30316466f,
    0.10022603f,
    0.46391284f,
    -0.01236366f,
    0.43309090f,
    0.22852290f,
    -0.24630651f,
    0.39711988f,
    -0.34306672f,
    0.42736176f,
    0.06361468f,
    0.37476832f,
    -0.06162611f,
    -0.32923055f,
    -0.30649194f,
    -0.24121080f,
    0.11510847f,
    -0.30348471f,
    0.25979975f,
    -0.35732749f,
    -0.45334828f,
    -0.40038252f,
    -0.47490457f,
    0.31385005f,
    -0.00203018f,
    0.09315911f,
    0.03322571f,
    0.46308193f,
    -0.36264351f,
    0.13188007f,
    -0.11827897f,
    -0.52645826f,
    -0.22707178f,
    0.14918122f,
    0.17040350f,
    0.31877175f,
    0.46031144f,
    0.19221964f,
    0.21522422f,
    0.34515244f,
    -0.14368396f,
    0.30444545f,
    -0.41764209f,
    0.42348263f,
    0.20686670f,
    0.39222312f,
    0.20091900f,
    0.20533563f,
    -0.02384184f,
    -0.31467175f,
    -0.08281419f,
    -0.25690329f,
    0.27429321f,
    -0.45106745f,
    0.20863506f,
    0.09931063f,
    -0.11498755f,
    0.12939924f,
    0.02328180f,
    0.01652369f,
    -0.30674455f,
    0.10780443f,
    -0.43632224f,
    0.08977402f,
    -0.01111566f,
    -0.19698837f,
    0.27513102f,
    -0.02971484f,
    -0.08704045f,
    0.16905925f,
    -0.16612220f,
    0.18782175f,
    0.04618451f,
    0.08936606f,
    0.31261304f,
    0.40303308f,
    -0.05864576f,
    -0.08167694f,

    // Layer 2 (32x16)
    0.24768339f,
    0.17140025f,
    -0.24491052f,
    0.41180548f,
    0.61348939f,
    -0.31615907f,
    -0.23711573f,
    0.10814345f,
    0.09277917f,
    0.07720579f,
    -0.23101534f,
    -0.11804838f,
    -0.45847461f,
    -0.33952025f,
    0.42312011f,
    -0.73838842f,
    0.51762646f,
    0.39097396f,
    -0.52625597f,
    0.25763538f,
    0.10547040f,
    -0.48353249f,
    -0.33974785f,
    0.24834958f,
    -0.02260747f,
    0.33508661f,
    -0.37280840f,
    -0.42409897f,
    -0.39209858f,
    0.13635018f,
    0.12610979f,
    0.07454689f,
    0.31871456f,
    -0.23894970f,
    0.44326982f,
    -0.47185910f,
    -0.25327656f,
    -0.54658908f,
    0.29707018f,
    -0.55933046f,
    0.07656325f,
    0.40673542f,
    0.52730948f,
    0.50841963f,
    -0.42470780f,
    0.37199637f,
    -0.22101538f,
    0.15584046f,
    0.32652944f,
    0.35582453f,
    -0.18637820f,
    0.20095675f,
    0.02355417f,
    -0.16895305f,
    0.40405136f,
    0.44879624f,
    -0.06076070f,
    0.36997136f,
    -0.64552283f,
    0.17495289f,
    0.38105479f,
    0.22573981f,
    0.38902378f,
    -0.28790277f,
    0.07135002f,
    0.20032851f,
    0.35202885f,
    0.00951320f,
    -0.09527823f,
    -0.20592456f,
    -0.14768849f,
    0.27864391f,
    0.23019926f,
    0.41192186f,
    -0.50413346f,
    0.24875283f,
    0.43187904f,
    0.37067330f,
    -0.45563823f,
    -0.29140764f,
    0.18961386f,
    -0.39014581f,
    0.21525888f,
    -0.34718299f,
    0.23413140f,
    -0.45642686f,
    0.39444187f,
    0.11183178f,
    -0.13823438f,
    0.37354836f,
    -0.24567495f,
    0.22031035f,
    -0.07338225f,
    -0.10387940f,
    -0.02374627f,
    -0.08849547f,
    -0.13628206f,
    0.14221317f,
    -0.10810775f,
    0.16662088f,
    0.49895221f,
    -0.51920944f,
    0.16689382f,
    -0.31671661f,
    -0.38095436f,
    0.23950584f,
    0.46044368f,
    0.41533470f,
    -0.47595304f,
    -0.42114350f,
    0.37572902f,
    -0.35083702f,
    -0.12266819f,
    0.01857586f,
    0.04515490f,
    -0.56484240f,
    0.40124702f,
    0.18380450f,
    0.51555753f,
    0.02558967f,
    -0.13480970f,
    0.30579436f,
    -0.53237790f,
    0.42254761f,
    0.38530231f,
    -0.44062018f,
    0.19547924f,
    -0.28135499f,
    -0.26768523f,
    0.43747932f,
    -0.30015582f,
    0.03324986f,
    -0.07336056f,
    -0.44029099f,
    -0.30838177f,
    -0.17001618f,
    -0.51415855f,
    0.49109083f,
    -0.27739537f,
    0.39994714f,
    -0.30763143f,
    -0.28170738f,
    0.26494202f,
    -0.18046232f,
    -0.25394303f,
    0.27507141f,
    0.13297255f,
    -0.51508403f,
    -0.02973953f,
    0.49363592f,
    0.19617566f,
    -0.66869295f,
    0.51863700f,
    -0.41617069f,
    0.57422936f,
    0.64737087f,
    0.32673925f,
    0.46375635f,
    -0.07357822f,
    0.05001989f,
    -0.42308834f,
    0.32577345f,
    -0.44218040f,
    0.21500769f,
    0.11121095f,
    0.55454427f,
    0.50371373f,
    0.29464722f,
    -0.16986397f,
    -0.43583387f,
    -0.43872383f,
    0.45672199f,
    0.39253879f,
    -0.19792987f,
    0.34725112f,
    -0.44589886f,
    -0.09708565f,
    -0.24298045f,
    0.54683435f,
    0.62720805f,
    -0.51587814f,
    -0.30717888f,
    0.39945200f,
    -0.01342517f,
    -0.38046098f,
    0.25988987f,
    0.14657404f,
    0.17416304f,
    -0.39449772f,
    0.34282780f,
    -0.19908780f,
    0.35239297f,
    0.47650239f,
    0.47997579f,
    -0.30234823f,
    -0.02803910f,
    0.16994539f,
    0.10729137f,
    -0.21336479f,
    0.45819473f,
    0.18392555f,
    0.27263203f,
    -0.05930941f,
    -0.06796662f,
    0.40673399f,
    0.32526922f,
    -0.04601733f,
    0.42912439f,
    0.36595207f,
    -0.17106809f,
    0.17313251f,
    0.15553816f,
    0.43600270f,
    0.39449614f,
    0.19577467f,
    0.43277693f,
    0.42850021f,
    0.12570767f,
    0.23268957f,
    -0.31697330f,
    0.28755394f,
    0.12394468f,
    0.42443648f,
    0.31218079f,
    0.46813810f,
    -0.41352469f,
    0.05202036f,
    -0.35983288f,
    0.46296161f,
    -0.34359464f,
    0.17326429f,
    0.42374629f,
    -0.34776050f,
    0.53432798f,
    -0.34895959f,
    0.09302476f,
    0.32154691f,
    -0.34325594f,
    -0.46521252f,
    -0.37206653f,
    0.39936495f,
    0.40756616f,
    0.28347242f,
    -0.28507379f,
    0.23260464f,
    -0.08814896f,
    -0.32938248f,
    0.23702261f,
    0.08461086f,
    0.37710571f,
    0.45238245f,
    -0.12531477f,
    0.10881745f,
    0.33518812f,
    -0.32061726f,
    0.14406505f,
    0.15623266f,
    -0.39011231f,
    0.45344579f,
    -0.36721370f,
    0.22817327f,
    -0.08746884f,
    0.35781312f,
    0.29685929f,
    -0.29398763f,
    0.20284921f,
    -0.57819808f,
    0.18348424f,
    0.35291871f,
    -0.52871495f,
    -0.04159194f,
    -0.47221100f,
    -0.33891708f,
    -0.10142316f,
    -0.06598010f,
    0.35495579f,
    -0.44646260f,
    0.37973565f,
    0.38086897f,
    -0.13411836f,
    -0.49807170f,
    0.08399240f,
    0.26128325f,
    0.40841350f,
    -0.11557770f,
    -0.29045743f,
    0.36797556f,
    0.47913793f,
    -0.25443619f,
    0.03323543f,
    0.42487901f,
    0.52033710f,
    0.19253743f,
    -0.04717171f,
    0.34688169f,
    0.47844666f,
    -0.10017880f,
    0.30553994f,
    -0.51677084f,
    0.32977587f,
    0.03782792f,
    -0.22397403f,
    0.17749955f,
    -0.43477374f,
    -0.06675279f,
    -0.56407791f,
    0.47708201f,
    -0.09657237f,
    0.67943799f,
    -0.58773869f,
    0.42234683f,
    0.01057041f,
    0.42913502f,
    0.12553816f,
    -0.03784635f,
    0.42658156f,
    -0.13985653f,
    -0.18035224f,
    -0.18262859f,
    -0.69841194f,
    -0.52888399f,
    0.07697330f,
    0.48894319f,
    0.31871772f,
    -0.18784210f,
    -0.32629675f,
    0.38377604f,
    -0.50024837f,
    -0.16599710f,
    0.13775904f,
    -0.35755056f,
    0.45273092f,
    -0.40086699f,
    -0.05149920f,
    0.42114908f,
    -0.46972087f,
    0.45654699f,
    -0.29753494f,
    -0.22270487f,
    0.25321388f,
    0.03982904f,
    0.52098221f,
    0.16900551f,
    0.68475145f,
    0.17152099f,
    -0.29877016f,
    0.59595197f,
    -0.63162726f,
    0.08647400f,
    0.16543509f,
    -0.03889239f,
    0.45532644f,
    0.38646662f,
    0.23049028f,
    0.15701422f,
    -0.19774072f,
    -0.14659712f,
    0.20713264f,
    0.41976833f,
    -0.26317173f,
    0.41999710f,
    -0.45873952f,
    0.27872151f,
    0.28045329f,
    0.34822533f,
    0.43356273f,
    0.09780502f,
    0.24483356f,
    0.10108332f,
    -0.25747377f,
    0.45779854f,
    0.28118011f,
    -0.52275819f,
    -0.09385061f,
    0.30424440f,
    -0.45996594f,
    0.03694778f,
    0.21638283f,
    0.34563372f,
    0.46283188f,
    -0.19013028f,
    0.40033340f,
    -0.20472606f,
    0.41438341f,
    -0.33406168f,
    -0.29630238f,
    -0.13527887f,
    0.28953463f,
    0.08487660f,
    0.34136334f,
    0.51930392f,
    0.52955073f,
    -0.20075133f,
    -0.40981692f,
    0.37497908f,
    -0.49669254f,
    -0.04922621f,
    -0.40822911f,
    0.26790890f,
    0.47089720f,
    0.45427421f,
    -0.12563193f,
    0.20697574f,
    -0.06611579f,
    -0.00046660f,
    0.11957549f,
    -0.35889548f,
    -0.05368895f,
    0.16005963f,
    0.09246772f,
    0.25040922f,
    -0.31345463f,
    0.00843705f,
    0.13793036f,
    0.61574048f,
    0.37820193f,
    -0.19823867f,
    0.34434798f,
    -0.45065707f,
    0.19249196f,
    0.47604203f,
    0.38388050f,
    0.34791446f,
    0.11613923f,
    -0.21989547f,
    -0.13544177f,
    0.27785403f,
    -0.10954027f,
    0.13894120f,
    -0.32041654f,
    0.47093961f,
    0.08706148f,
    -0.23601277f,
    -0.06051071f,
    0.41655833f,
    0.41840023f,
    -0.37660933f,
    0.51875830f,
    0.37429696f,
    -0.37693134f,
    -0.15985200f,
    -0.44515249f,
    0.20663759f,
    0.38787109f,
    0.38619137f,
    0.18821199f,
    0.19647235f,
    0.12635873f,
    -0.39229977f,
    0.34198573f,
    -0.13651699f,
    0.42861143f,
    -0.36596939f,
    -0.14273781f,
    0.24899018f,
    -0.52667075f,
    -0.61403918f,
    0.48592487f,
    0.38492879f,
    0.45269668f,
    -0.33530012f,
    -0.14146411f,
    0.31904796f,
    0.52001923f,
    0.37440342f,
    0.22173205f,
    0.03418203f,
    0.51828218f,
    0.19724908f,
    0.24509470f,
    -0.35264468f,
    0.32101047f,
    0.46509650f,
    -0.01807189f,
    0.04180469f,
    -0.10765035f,
    0.36036655f,
    0.27546647f,
    0.40823066f,
    0.26994401f,
    -0.03547808f,
    0.31233427f,
    0.11390428f,
    0.32652307f,
    0.20167838f,
    0.08965925f,
    -0.03849879f,
    0.44825962f,
    0.11298062f,
    0.28537053f,
    -0.49478009f,
    0.46438953f,
    0.33417475f,
    0.46436980f,
    -0.25635341f,
    -0.24409404f,
    -0.24674745f,
    0.42268211f,
    -0.59751785f,
    -0.26876244f,
    0.49124950f,
    0.01270783f,
    0.26765227f,
    0.35466257f,
    0.77424812f,
    -0.91929001f,
    0.91839886f,
    -0.59281659f,
    0.25892904f,
    0.21607639f,
    -0.78992844f,
    0.02420410f,

    // Layer 3 (16x10)
    -0.01770950f,
    -0.48541331f,
    -0.36081681f,
    -0.40545142f,
    0.33505756f,
    -0.14937451f,
    0.58937943f,
    0.30236211f,
    0.12905645f,
    0.17192574f,
    -0.13336602f,
    -0.48782516f,
    0.46716580f,
    0.55648184f,
    0.54547256f,
    -0.29888609f,
    0.05026481f,
    -0.55921215f,
    0.19392766f,
    -0.07492262f,
    -0.17475815f,
    -0.70882851f,
    0.08216295f,
    -0.22917493f,
    -0.65623975f,
    0.11397080f,
    -0.53124684f,
    0.34752512f,
    -0.27694163f,
    0.18962160f,
    -0.50789493f,
    0.47502309f,
    0.56874925f,
    -0.24765068f,
    -0.54022902f,
    0.11218283f,
    -0.26824382f,
    -0.24142461f,
    0.27948177f,
    -0.16928490f,
    0.26664236f,
    -0.11048585f,
    -0.00542929f,
    -0.05249397f,
    0.34428072f,
    0.46203697f,
    0.49528152f,
    -0.36046636f,
    -0.60142738f,
    -0.36173618f,
    -0.32510865f,
    0.27023530f,
    -0.57431906f,
    0.31967655f,
    0.15830554f,
    0.14899796f,
    -0.24265434f,
    -0.81964058f,
    0.32364157f,
    0.26819593f,
    0.08909403f,
    0.44251677f,
    -0.04480238f,
    0.47522429f,
    -0.51337659f,
    0.53050256f,
    -0.25143749f,
    0.55740452f,
    0.28340760f,
    -0.30599344f,
    0.40190160f,
    0.01475986f,
    -0.06907169f,
    -0.47138217f,
    0.21886261f,
    0.55739886f,
    0.47221625f,
    -0.56168771f,
    0.54309887f,
    -0.43670428f,
    -0.35399127f,
    -0.33880028f,
    -0.19052278f,
    -0.25136355f,
    0.37100053f,
    0.57704747f,
    -0.00555678f,
    0.18050253f,
    -0.46137744f,
    0.45830232f,
    0.45872813f,
    -0.46403834f,
    0.29578730f,
    -0.49789080f,
    -0.57135499f,
    -0.62849993f,
    0.12360913f,
    0.27934203f,
    -0.14490198f,
    -0.06161012f,
    -0.06314357f,
    0.27129602f,
    -0.94522500f,
    -0.52773255f,
    0.84420580f,
    -0.44671142f,
    -0.17609033f,
    0.40681225f,
    -0.89350682f,
    0.13038686f,
    0.34093958f,
    -0.52712154f,
    0.26500684f,
    0.34229544f,
    -0.59839058f,
    -0.36364442f,
    -0.64537853f,
    0.30480263f,
    -0.37077096f,
    0.01383759f,
    0.44168103f,
    -0.45895201f,
    -0.48885933f,
    0.28958765f,
    0.41004276f,
    0.40283510f,
    -0.33963788f,
    -0.24334495f,
    0.37092441f,
    0.32139581f,
    -0.46803704f,
    -0.63401216f,
    -0.21788152f,
    -0.27121624f,
    0.41634798f,
    -0.15197991f,
    -0.32531935f,
    0.22953361f,
    0.08059140f,
    0.58310378f,
    -0.49982780f,
    0.35013175f,
    0.38320035f,
    0.35612741f,
    -0.63007224f,
    -0.06539099f,
    0.52025419f,
    -0.30578598f,
    -0.26965505f,
    -0.21659118f,
    -0.38002393f,
    0.51762193f,
    -0.40054470f,
    -0.25967205f,
    0.20607889f,
    -0.73977041f,
    -0.27442935f,
    0.05690937f,
    0.20489410f,
    0.16732049f
};

// Weight offsets for each layer
#define L1_WEIGHT_OFFSET 0
#define L2_WEIGHT_OFFSET (INPUT_DIM * L1_DIM)
#define L3_WEIGHT_OFFSET (L2_WEIGHT_OFFSET + L1_DIM * L2_DIM)
#define TOTAL_WEIGHTS (L3_WEIGHT_OFFSET + L2_DIM * OUTPUT_DIM)

#endif // MNIST_WEIGHTS_H
